{"activations": ["Sigmoid", "Sigmoid"], "b": [[[1.2807716206658086], [1.092499909898699], [1.317004056750691], [-0.6813760143006511], [-0.3528161115344968], [-0.8176841941005581], [-0.6234654909959805], [-0.4924372679110169], [0.8752351759686404], [0.008994952396358113], [-0.7076213216998998], [-0.6750379376483747], [-0.625461691363819], [-1.4569729023240816], [0.7326048594592987], [0.21721927995917498], [0.10020003127695545], [0.8602013307698514], [0.3197440603173702], [0.4499984496707067], [-0.5346400870353484], [-0.6654600141239436], [-0.7304867659855847], [-0.40613774717995915], [-1.0075993792940243], [-0.912031985672453], [-0.31299212747589594], [-0.6180151961609786], [-2.7137580147270004], [0.2732508310200508], [0.6233991716906978], [-0.18215707039853227]], [[0.36415600110529656], [0.6054351523968244], [-1.105047823390563], [0.2491342526756779], [-1.1644734469813292], [0.04793376363956365], [-2.1041908231882833], [-0.23526738266951733], [-1.9041242012525106], [-0.6449216279981478]]], "W": [[[-0.02365640534776047, 0.054915052354962315, 0.010171094278209461, 0.023272640304282232, -0.0196092640112804, -0.033278414763509824, -0.008943808852347437, 0.0026104405351944702, 0.06796978547729896, -0.003823898224794303, 0.02605641126091712, 0.041131529069038456, -0.017335721779626088, 0.010800082747522404, -0.02470407014668209, -0.054790757702170345, -0.018961082745775508, -0.02092954776680462, 0.01822352343660166, -0.01447408633490479, -0.024735648693233643, 0.012799101431487355, 0.035233920972444745, 0.009330930447716794, 0.018977167907733926, 0.041484582208151634, -0.020451967284466032, 0.01398745091124809, -0.03178279330862135, -0.024423126082906626, -0.03344909875030256, -0.01692748330730836, -0.060556990063840126, 0.032710710963603104, 0.01888577473061019, 0.0067284240339803075, -0.05286770960530562, -0.03880577894803165, 0.01349072822837171, -0.10056694765636044, 0.09239469845531376, -0.023565217181759423, -0.030912401438725614, -0.026555798007605696, -0.054210158150855704, -0.06891612368969093, 0.0842593670439963, -0.05233837041825668, -0.05488565289207729, -0.0656762882263081, 0.013637499191445843, 0.015361488374773673, -0.00485293634840398, 0.027384386355701788, -0.020781713661372967, -0.005810844411942038, 0.041772171226306457, 0.008567809108680643, 0.062293379841659606, 0.008042402183905029, -0.05887514043124275, -0.009167635443840784, 0.030209984351095846, -0.024782834173380078, -0.08215193047197603, -0.09535413075854034, -0.10698029249486146, -0.08257616840161067, -0.15577834022210893, -0.11191886802722757, -0.07754939726607223, -0.04956107761133765, 0.020915441086522265, -0.10300431209039768, -0.03730018463168941, 0.005463649536984324, -0.012139023618498161, 0.011392183576249638, 0.04255646136162864, -0.039462833527659946, -0.014239421410907421, -0.050402415063989604, -0.04941342668149147, 0.014930190638710584, 0.02111704442440322, 0.0100868675049377, 0.03959369414681393, 0.002441656993600396, -0.08697250635046494, -0.00900937734643833, -0.002136030947625162, -0.058651683754367884, -0.05181289266851793, -0.21008625323890145, -0.3153120609379842, -0.24438843144085154, -0.03886010649224903, -0.047195146857237635, 0.047867978441286124, -0.1963824704457024, -0.13018233173176985, -0.10894015122422028, 0.13191353999678576, 0.1365555552306695, -0.017231864079221046, -0.04099238048090112, -0.0293289598878299, -0.08327194028104978, -0.024298293418329987, -0.023835909720841868, 0.01617311915729807, -0.0010642902375017267, 0.009587393929223222, 0.08152108521415492, 0.05697245602096033, -0.011200602699820764, -0.02088501203091868, -0.03468304445543434, -0.00820180392891557, -0.061725480816742034, -0.0749089332992904, -0.13047276026987958, -0.16026212241820573, -0.020086037945383686, -0.0504853656844717, -0.12540410056331663, 0.0031341407973455534, 0.23400551930412747, 0.20458685452338138, 0.4572349533172135, 0.3057915475432037, 0.3782089277644822, 0.24810349591216677, 0.3003072392802861, 0.13580825692510656, 0.12889580839367734, 0.1934050306882834, 0.05040690798708534, -0.027530067562319373, -0.014658514329686522, 0.024409790880045475, -0.06086625251538736, 0.006184188144715183, -0.03800951519435954, -0.049059206122133166, 0.009038974584995705, 0.112498047189329, 0.15965892635969137, 0.12097488339551862, 0.14445242402856556, 0.11889206289328458, -0.09391862809027018, -0.2920887175454943, -0.23618204693189684, -0.28750590574168505, -0.1803828317635153, -0.09655684918902763, 0.014128583239557947, 0.09977772710135237, -0.07499165995593335, 0.068692287780264, 0.2778368149951062, 0.26245558736654695, 0.2061656379517506, 0.2346479499218676, 0.14420263967134297, -0.004977971360604738, -0.02161389046966509, 0.06059859757147294, -0.02396812067527031, -0.023851964481571553, -0.025217927188224753, 0.07954711721419051, 0.0733047491604091, 0.26537984220506927, 0.26285069885607854, 0.2913867615826269, 0.2670788995864604, -0.0456691631459257, -0.16933283135757865, 0.034683599886000956, 0.12073351432758367, 0.12360125872814227, -0.03840768948452706, -0.04608314895383173, -0.09874192807957394, -0.2108290940649743, -0.23564380269123897, 0.24430965324720758, 0.11523818745020967, 0.156984917572712, 0.3645406456685132, 0.40931396804867687, 0.3002826079318165, 0.12687399780468675, -0.0457680367046372, 0.008774562376658473, -0.04348971344862275, -0.01564304346278882, -0.04454612590796051, 0.0959936370584178, 0.2674865080562183, 0.36659882911422653, 0.3911955578874551, 0.29476500694020014, 0.24486552213493154, 0.16735032526880306, 0.24560827983553513, 0.17518276392992185, -0.19705682342801356, -0.007089378705633073, 0.04723162764423494, -0.0004856850365844347, 0.09323293108199465, -0.06512589528358759, -0.043083768970771985, 0.4124618772018418, 0.23388088210028327, 0.16044256697644002, 0.23343860280204332, 0.3590561149365407, 0.37247681110616665, 0.1768400888388017, 0.03194190535884284, -0.021381083260129965, -0.003732785508181976, -0.06312957217180827, 0.07983561773712337, 0.20227914409277314, 0.15629760698856326, 0.1859642078834184, 0.27163441230822444, 0.0569635891565948, 0.38646685936767705, 0.09563041426112875, 0.1674113013481695, 0.18254293007105535, -0.18813643239064018, 0.046362427845442346, 0.1793774181813248, -0.23711194681935488, 0.050843838242434054, 0.24250978613000387, -0.018864247511969606, 0.2553738132194941, 0.16990555603073168, 0.11656888439011344, -0.009027359074564523, 0.3689336264572426, 0.3354529525638579, 0.06872094293785667, -0.012760452972289116, 0.0472143822552974, -0.026054437534234885, -0.00994064139440409, 0.0447259603185975, 0.09843778511414739, -0.12476356531144421, -0.220357244794846, -0.056301656870625265, -0.004812766240168535, 0.0031540033480476426, -0.008765890158480151, 0.12259902310570174, -0.010954018470046595, -0.08660689147335306, -0.034160862721013284, 0.15447476356518106, 0.009915833754626409, 0.42602079804309884, 0.12160218555289379, -0.003813676676434431, 0.09979362857915701, -0.023359313143214277, 0.06867161844424448, 0.05513679858186866, 0.4201636089141122, 0.4441163212655397, 0.03481742180834802, 0.025826855489440578, -0.04914475821729261, -0.024971587275389524, 0.0400684114174134, 0.04428589628707979, -0.08066159795524858, -0.117299738826478, -0.07455283849540005, -0.01225121373697991, -0.12600710558479922, 0.006322352836832593, -0.08397916248966598, -0.15936967056280216, 0.06485897447946376, -0.05311358590915336, 0.025145765278582196, 0.5742193723271217, 0.676169659573064, 0.3471120367660776, 0.25987286533130205, 0.136413146027859, 0.17721905721218767, -0.03206811743047405, -0.01965718063667815, -0.14740367443040844, 0.26730536566579005, 0.3882388323894387, 0.03306056613599597, -0.005882452686326633, -0.04119611477881337, -0.016952738572943625, 0.0026979667969502566, 0.05213218723491134, -0.05585883523080569, -0.2453311002840823, -0.11257292166941205, -0.17940632059626738, 0.12433584665400617, 0.018565861259214063, -0.229307408388766, 0.04580119278698347, 0.06552734241623044, 0.19795198978835193, 0.1181473004994089, 0.44028918047411253, 0.548622806262494, 0.07461047604103933, 0.14045043324827672, -0.3940250810165581, -0.3374594532414837, -0.5305954760100071, -0.5181749382787327, -0.4955995466442677, -0.26548114146962287, 0.15928216754283325, 0.12511943794808786, 0.04240381239053314, 0.01975119373232136, 0.052534442086217124, 0.035097852881996586, -0.1273239286223339, -0.10576695740728871, -0.21282602870398018, -0.17394297381390791, -0.07702737315543573, 0.1515681398525169, -0.04483880798070698, 0.07677400801556714, 0.28084815831711407, 0.08002422269714903, 0.16934002553218494, 0.16865189575386452, 0.5076151539131571, 0.2292278894476945, 0.3048681041956551, 0.08498006437232633, -0.40221597495025385, -0.3534669275958273, -0.9860351677694138, -0.8154424555302944, -0.5803994885224882, -0.475648743426626, -0.025299607217514477, -0.03249660287276889, 0.02112700406357578, 0.004299987456463336, -0.05144332376701811, 0.03532898316531186, -0.04037568490508034, 0.0820277735418584, 0.2603445894047494, -0.0925239940860864, -0.2570311869186229, -0.18800292818478034, -0.2986103149125368, -0.03731683401878533, 0.25310375619585507, 0.09262481130179515, 0.013008026494174908, 0.4343954963614607, 0.22809770630577353, 0.010642068273435147, 0.3450772848166748, 0.2885545626338901, 0.04550198305164776, -0.1265922129013117, -0.5551110441173194, -0.5981427605086996, -0.49398921652625455, -0.42680406767406315, -0.12493743934729383, -0.021389537112422065, 0.013414065341889611, 0.0609559245053869, 0.044741645077051896, 0.05218678498655363, 0.06087476870383014, 0.35368606681017606, 0.2890522398135327, -0.2819355093983936, -0.44416713005127695, -0.1450456497725806, 0.016250495180107825, -0.07030118202544033, -0.4062185952121554, -0.2533930805933996, 0.08637041148997246, 0.08943945190654855, -0.0966568968351443, 0.09196987910785284, 0.3553435488650379, 0.3895430282489399, -0.032433968639927147, 0.015831931045991652, 0.1404285388880698, -0.12834793347979778, -0.22039732220475558, -0.1820207123925817, -0.011770038598873834, -0.06115831419263004, -0.035599924593361726, -0.02818193786334273, 0.044894558995536536, 0.00824719254381581, 0.09694157100169991, 0.4438076354739984, 0.07741983696171979, -0.2561360086112971, -0.3580534715579555, -0.17462890198627606, -0.15671538214052338, -0.4578015465817734, -0.4329534363602198, -0.09063100263757388, 0.06800602440413937, 0.25717227184572455, 0.22174229439387882, 0.1110194871128346, 0.0768732849509294, 0.10402800286180953, 0.02236100371337074, 0.13468877054768466, 0.35810311794092325, 0.10535753478369096, 0.10775158123178183, -0.05422192050253561, -0.04444598242957926, -0.0008865135745436592, -0.01888091172645661, 0.04399446269548472, -0.04160921437980462, 0.06292904634859202, 0.15587868465066712, 0.232691948957031, -0.09468570320670726, -0.18953606684172758, -0.2278187099968182, -0.2673836198730308, -0.37179746372392813, -0.6671206281816575, -0.7628855929443469, -0.13083900687311906, 0.38182011194390225, 0.4912550740060509, 0.3218540978300043, 0.009784541942832882, -0.020306398324438094, 0.09108082672682019, -0.06827652399212536, 0.03118485910280757, 0.15523432354891195, -0.02967915846101916, 0.007170243523216339, -0.006685280322226217, -0.1428176995258904, -0.070330567181664, -0.02137272204302861, 0.02992805769628743, -0.00013724785471041245, 0.02799716295272425, 0.18251183133264626, 0.30135939098218734, 0.042099227948733456, 0.0320886348289682, -0.1467715927192642, -0.3029828444328131, -0.6688809603734869, -1.1965346454900776, -1.0432514069015448, -0.4950449432878384, 0.18229107712570344, 0.35428806100468907, -0.009039347879659345, 0.08058223514822131, 0.021201851705348558, 0.16563740667935023, -0.21233367331504827, -0.13693470946636085, -0.08498914947406515, -0.33120994418894123, 0.14266078026794662, 0.026453881295944483, -0.21289912272228476, -0.018559655461550584, 0.011434378499009884, -0.08651270623180396, -0.0756997786437253, 0.09406101994938264, 0.2990713047273305, 0.16913256803825352, -0.05333206860981177, 0.17987080211805564, -0.16250698819392778, -0.29661578238844544, -0.5812874145705793, -0.9638962286114352, -0.9603302505193054, -0.5692980073825825, -0.028660642313023524, 0.2814121471876271, 0.06839648695331864, -0.25146678575076603, -0.10991690425041732, 0.024516909398087684, -0.07026699570943755, 0.01877001023652679, -0.05394045631508979, -0.11165573345418278, 0.095302930566544, -0.10956693119991646, -0.08249189751809108, 0.001198849568541838, 0.04080663292563732, 0.01924384007930082, -0.016063262657606235, 0.08689367302045485, 0.18581537449302415, 0.009169579857520814, -0.09861430968212456, 0.2814129436057533, 0.09285948944888459, -0.17772204958576582, -0.23880886397148435, -0.28002206959707254, -0.4418910915136592, -0.23255080547519, 0.24377350937366413, 0.45619638825797265, 0.22207668542933245, 0.07961512874546987, -0.03524910472377493, -0.09235487697502445, 0.08183122995103087, -0.07997964084297869, -0.1762882471308618, -0.16775457358040302, 0.00960119578161708, -0.13336498493436819, -0.0385637483729499, -0.042144597968028295, 0.024319026345363693, 0.00696128316131661, -0.019928004626793172, 0.03005988082563038, 0.16467631087671264, 0.1308431899244591, 0.0075934416652811525, -0.0523984857167409, -0.17985286446047136, -0.07825123027893904, 0.0498216408122155, -0.31894443709468934, -0.42195082136714535, -0.044987417315100336, 0.28140456348346043, 0.05845412303087284, 0.11722932504588199, 0.24887361321567922, 0.25622644391496163, 0.09433585836987167, -0.019320558592945066, -0.1450492818176599, -0.04701771377403214, 0.19230639151069842, 0.020413945138065614, -0.17315484008295742, -0.03649361066029245, -0.04314270522570419, 0.002000635088021201, 0.012361851239090182, 0.021223309177862325, -0.032068402431703336, 0.0725406139862989, 0.2648100091786308, 0.20732631564521634, -0.11407359883353499, -0.3432742652345921, -0.1648305776429597, -0.2814366924302557, -0.24955291881567856, -0.3166939877015783, -0.23495803177426866, 0.19566042252808824, 0.021520351551901788, -0.07130715090947289, 0.07142839327935442, -0.07867878153633244, 0.10717021954615003, 0.2866966938976854, 0.1945394925415801, 0.059490493481571406, -0.16353187808560685, -0.16770079099019045, -0.21439942540839182, -0.011741434266657698, 0.05994155489536922, 0.0315359619922153, -0.06717836732930095, 0.03857219703521453, -0.09649095283379361, -0.08731879349022484, 0.04382334706821076, 0.18604327473900864, -0.14656939008230654, -0.2872330248381469, -0.46928028263647037, -0.3924712450141723, -0.42353602659629025, -0.193947838609791, -0.1439216212792223, 0.1153327159337066, 0.22111661202483177, 0.3011083391682503, 0.2659889960461885, 0.0052084558937483556, 0.307635123103215, 0.42425337828844756, -0.0009532222843785299, -0.17153852553923948, -0.11599413986794455, -0.11736231787513464, -0.17616709476407255, -0.09381938235533957, -0.049201038992383705, -0.032859466568707876, 0.032489213194971486, -0.047761158941307606, 0.030119210003630284, -0.00092590727663288, 0.1393551182401534, 0.22516775575393586, 0.17411174680978303, -0.12452958418665806, -0.4708780951696023, -0.24523630434805552, -0.2775131765557908, -0.16185098147131363, 0.0274173694207645, 0.24544744764791154, 0.3545874709954403, 0.33095389485377225, 0.1497517328829783, 0.39483595369651525, 0.2517401700817375, 0.03684815231560562, 0.02494674796573459, -0.056223217239495006, -0.13264897895627925, -0.14308457678352673, -0.15137476001159803, 0.04696214242324882, -0.007942325819269364, 0.05729272719719793, -0.004071450980271609, 0.037258323642740836, -0.022059835306170308, 0.09611416859326789, 0.13637511830195093, 0.325008283335013, 0.3598233940228689, 0.2227689183192269, 0.027947990522792517, 0.025497317006486317, 0.09320217243816949, -0.03739876507837505, -0.04283247661977731, 0.08887384273830734, 0.0681590053457209, 0.3934807294580402, 0.26722778202141645, 0.03472424916818605, -0.09661101148279665, 0.032418477853841915, 0.13630691825665187, 0.12226592726692648, -0.05341816439107088, 0.011216423461660166, 0.008600615622196243, -0.049837286375942445, -0.05290638228583231, 0.09308040674620797, -0.025700390588233608, -0.029345842665839058, 0.0024823430049284545, -0.01959754225904998, 0.048255885862938885, 0.15477545283084176, 0.17049821091498085, 0.23052683319772552, 0.3088004869929325, 0.3788819546959504, 0.24398940067708325, 0.25380677352511916, 0.216384633923776, 0.18562598516453363, 0.2508453417964328, 0.31675708431691896, 0.1265552169717068, 0.1007135250099842, 0.06995476531944529, 0.11008777096882814, 0.06142929036390412, 0.030335279291495328, -0.0920034448909097, -0.04237870307980641, 0.015430703546701481, -0.010570315823184162, 0.018090972319389116, 0.031713706711194604, 0.021779992137050553, 0.01299519914299399, -0.015620327321391929, -0.008626173715733345, 0.05535035699210995, -0.028368831737936105, 0.029042026162751755, 0.004680410392141575, 0.0698895598283525, 0.0509665947218017, 0.03139464106900103, 0.011588617146317936, -0.012214765841840423, 0.07272926785141964, 0.05821055067050236, 0.038276496859631505, 0.019039103227291583, 0.11786087924757917, 0.004572713978301219, 0.08927051456554486, 0.1164910320021498, -0.04360423804017884, -0.0006461844860084934, 0.013516882255854588, 0.048444213785403596, 0.060409932151456285, 0.021184225258648517, 0.031399347279637405, 0.030903574239038337, 0.07449316022334299, 0.03493871937099841, -0.002887555765851965, -0.0405954464048098, 0.004522524621561984, 0.029923523568689183, 0.023729893409611326, 0.015545152637720973, -0.002347713151739874, 0.022467044347773118, -0.011615191204319019, 0.008801079651445637, -0.019184185929250218, -0.03770767193753737, 0.040511050707963264, -0.0006592710368891582, 0.002736222880942935, -0.020588705848529624, -0.0450607698498019, -0.021593836295941717, -0.015248290415282828, 1.7052083894863162e-05, -0.006909570784266178, 0.009996913375923297, -0.01850091405490915, 0.00705619490157994, -0.017704632334403232], [0.008178756377457396, 0.005068798145477803, -0.037304107661270416, -0.006451243141908093, 0.05156576878799163, -0.0040862861659802215, -0.008594803354843687, -0.044012808698627115, -0.00891943799768131, 2.2315628588252923e-05, 0.017525325963943756, -0.08685532131371534, -0.02229251854817512, 0.014299483900692533, 0.012679049192092826, -0.041624393352727385, 0.03415546740212368, 0.013729078324576219, -0.02670513959055427, 0.00219045881868625, -0.022115274862260982, -0.05284100191157276, -0.0017759924403189507, 0.017758544659645572, -0.05085491811577368, 0.028076499101700646, -0.04939897684785926, -0.0012889360902621297, 0.01599546915007644, -0.021994232898941684, 0.05841277376524, -0.007585058021960915, -0.07089093687788399, -0.00718388817016969, -0.0043697680801546845, 0.002088480066036973, -0.022033912528044413, -0.051906801311356554, 0.045879588349068884, -0.03940616117672802, 0.018002630047448287, -0.03520706885940112, -0.045324676721035705, 0.027433248308380242, 0.008233115991276302, 0.043352085626753696, 0.02886457750150925, 0.04199454792712586, 0.005297318061225223, -0.009450660481164337, -0.033790338260410495, 0.02766560778613764, -0.032313583190594956, -0.03980261062060827, -0.027949844176112314, -0.022306433503999468, -0.025952964834453886, -0.045670177255327085, -0.08731316372982324, 0.002104735239938644, -0.046509688938167364, 0.0005580556230083994, -0.10315759932981951, -0.018509707288775077, 0.002492582700629335, -0.07668817057509958, 0.02967301281192441, -0.012427850099119711, -0.023276200695777224, 0.026524730640342435, -0.0636329508665957, 0.009246279437440802, 0.07406169898970945, 0.0109447234410182, 0.04022397861428028, 0.07588455735896665, 0.04944679323726698, 0.006724196922974194, 0.05226006922015417, -0.02783468551220455, 0.0024949472257575806, -0.03847734458991013, 0.08258536727588321, 0.03569204593542564, -0.009584386216115227, 0.011756377674395895, -0.024809303914626078, 0.0010777104719653272, 0.006327002547925194, -0.01763942944941453, 0.029660148744270323, 0.010198333570204148, 0.04459183835255572, -0.09745690667183177, -0.14034379449984896, -0.23169697303179626, -0.21831621428930076, -0.2611753437237836, -0.14336685154787945, -0.19664897740610238, -0.1500749180480795, 0.004928007956753176, 0.14798137019197066, 0.22600996795736533, 0.0786054137804673, 0.05591320149623533, 0.045192292315564785, 0.02712596425917576, 0.03438839664855058, 0.0005452905731289121, 0.07378110064332992, -0.03388469716471971, -0.003563916099745559, -0.038292190983783225, -0.019661868718892028, -0.015311116544415937, -0.0054804994944876164, -0.05322278879531894, -0.03807317819568783, 0.03688933658749717, -0.04594071521987328, -0.014388786958961373, -0.09166132677723692, -0.35514411872693874, -0.3684881937234641, -0.2516106369955101, -0.19291565430087068, -0.4066051879585431, -0.3246601854003116, -0.17616075978583134, -0.08522217261765902, 0.005926833891252431, 0.07801356706782281, 0.12986473620480718, 0.13555035192388692, 0.12008992946634675, 0.0706728043006932, 0.011697447707250544, -0.018665687179416336, 0.016648095594034663, -0.003077975388198016, 0.008078155726443395, -0.07464690308774309, 0.03665431710211896, -0.023987268694000526, -0.016013296469496157, -0.07805570675754962, -0.15678682228480093, -0.1501406159277881, -0.061718262420715396, -0.20186994467410188, -0.4704942114612196, -0.24987795991687323, -0.10402160097658922, -0.19698494800297334, -0.4406012960092154, -0.7671687636710504, -0.5448468890225902, -0.47358140222013384, -0.5443977754095357, -0.31436229796667486, -0.09923824306912293, -0.004626899980424552, 0.10577347066105129, -0.016728376683385882, 0.052449504114507696, 0.08130324833026478, 0.03151744170677607, -0.016071912260743663, 0.04251470713912387, -0.05616450645153406, 0.02201618708627445, -0.023168571657838345, 0.018501370169464806, -0.10972220086870092, -0.08732487487252136, -0.1510398837599843, -0.10853143818260297, -0.049038637155895855, -0.19257353933088037, -0.4669116119916073, -0.42561772002947285, -0.141858927746821, -0.11565418248799017, -0.2770193656437295, -0.24011831078928333, -0.308111517423346, -0.5248200400656962, -0.4127770437892191, -0.23152632840932233, -0.10166272531550351, 0.037516420517304125, -0.1441703631709507, -0.08343847268894751, 0.0007286497866373748, 0.03502844433493246, -0.01674489870830881, 0.018062757612669244, -0.008041115740310632, 0.06226069821493146, -0.014034896738434834, -0.015585921689066022, -0.08652374784349094, -0.21415919348983495, -0.13021403455545005, -0.0034691974798464593, 0.10528381174941406, 0.09917768519648236, -0.1055569943283868, -0.10191204394742152, -0.016329403609845205, -0.21777276178357122, -0.379025865259965, -0.11135350691863805, -0.35898103844005436, -0.3177053384358119, -0.10870090480454495, -0.28861620428244866, -0.20593747921652367, -0.15872351455749897, -0.2222564453946452, -0.10899161288554991, -0.08228818752777362, 0.05344448977496265, -0.0031344519227589395, 0.03993992323373969, 0.03865883567205666, 0.024042947451823723, 0.03551239506929225, -0.003929397587891174, -0.21648280959989358, -0.1514735137397898, -0.07931378723839802, -0.12559900918551278, 0.21400653324812535, 0.20358219159412125, 0.08555476959600994, 0.002601876500327233, 0.10059836159997701, 0.07491473269074041, -0.33362338057604773, -0.2669393791896685, -0.1069217510308496, -0.17203088582324058, -0.32615074855144305, -0.2765474700532745, -0.2409407540024967, -0.4043593211040491, -0.29308495049215555, -0.0034686990120918887, -0.05599875701906034, -0.025507670193841363, 0.06387619284086307, 0.05282963127356786, 0.030361963942460796, -0.05942717748565183, 0.03501780071135422, -0.09160298752967619, -0.1972935123667965, 0.02089964814433032, 0.148546042386604, 0.04127571157575256, 0.26264331757416165, 0.18329464520230931, 0.10885703328098921, 0.2942735871107303, 0.2489286468783961, 0.20697820975799716, 0.08459662595180185, 0.059562999264089415, 0.13172678191045833, -0.16145648934309073, -0.33201307702956423, -0.3497996924416779, -0.29175951228468266, -0.4882193192713549, -0.2716949406655562, -0.08831481390227966, -0.020904577060158767, 0.016186904686751363, -0.01862956412916152, -0.033851749694541446, 0.022969797960916586, 0.03912883768865293, -0.021839398235696857, -0.06858296674270054, -0.02094718510311317, 0.09409888594834004, 0.09557126183158503, 0.0192467237227911, 0.09598415765638867, 0.207780012444437, 0.05789490555144684, 0.2201346379996249, 0.31120776202308703, 0.49019460594863234, 0.317430294083535, 0.12242740122013852, 0.015381070296486533, -0.0998835705919335, -0.35326245947347384, -0.30766082661083227, -0.23403292486445423, -0.3496056672802672, -0.1617793283560034, -0.10024525333236746, 0.04665001944482774, -0.04662517194398928, -0.024240757146361386, 0.01332447359903593, 0.024378058455922624, -0.05707241160560266, 0.08318825423378325, -0.0017028500983547637, 0.12507875835120497, 0.2055743601701991, 0.02220576599889626, -0.1813519419669648, -0.1786187729465256, -0.038177616817224126, 0.13711503422601984, 0.04658510283674736, 0.3943898303208199, 0.300908824169474, 0.29671412970986477, 0.32778232169409743, 0.05849093403044686, -0.025779554974165127, -0.22617767318520335, -0.01329255151213292, -0.006832973233599692, -0.18866702618538125, -0.11480245967777815, -0.11369131683099555, -0.07909001748526866, 0.0315560947397276, -0.0444783984388414, 0.012201148248246028, 0.0189410851734947, -0.017158398077194992, 0.14613488295131652, 0.09461356402815137, 0.1681131075531061, 0.33497586686255215, 0.08999107070055054, -0.12444838306649776, -0.1620759179579492, 0.021706905617823253, -0.12811308301203853, -0.0276338836099764, 0.3968811854653942, 0.2623095595749141, 0.3189983968704931, 0.43592373707892684, 0.16377840686997833, -0.13480059748287312, -0.06025717431001337, 0.06941150546428734, 0.184621560645972, 0.15497586290535445, -0.08962930412759415, -0.10687152972457041, -0.02390197354908887, -0.03098848204313929, -0.02713016004769083, -0.07710222452234688, 0.014801853226991304, -0.013856091772457179, 0.14233701290449796, 0.08941504965556524, 0.1756011154313153, 0.38069846185421946, 0.12793072092364166, -0.1719464136349232, -0.0993390985783008, -0.27286048466053114, -0.10266372656223076, 0.09924276477911374, 0.11503228099959732, 0.21841051305740466, 0.20707649075074305, 0.29763990882436825, 0.012696593889216106, 0.2506803343274649, 0.13890683704471335, 0.2589226237633174, 0.307258620913768, 0.1949712943896339, 0.013955737327690145, -0.0841236218464098, 0.011103614874200673, -0.06641106725820146, -0.028267474579235008, -0.05693512448046033, -0.06731838564446171, 0.08488242353672028, 0.044719882958988814, 0.15676506041255797, 0.26170839304232907, 0.29790586918024825, 0.31973767668766173, 0.10712279851717652, -0.053445735330080325, 0.09661516937326411, 0.3351934342907531, -0.1070690074774038, 0.02488175560793321, 0.287519407395963, 0.4280549333130781, 0.4597683775104606, 0.20533538083985672, 0.17476964251016672, 0.3240738042819812, 0.5099751772956733, 0.3663076225281671, 0.2475043698128779, 0.08046691592918843, -0.05626311154956089, 0.0610637762749678, 0.009567728441513951, 0.0023490769947006325, -0.02573209233930155, -0.05587962788351139, 0.07257909801767061, 0.02439720852359829, 0.0858990643029693, 0.25781435947793185, 0.33528977302114177, 0.6606657497979155, 0.21980190711543077, 0.02706751534439642, 0.17579416615291477, 0.1414686443138884, -0.004912855593544503, 0.24519479426472543, 0.4616395326458997, 0.14140499950275692, 0.42199784178316435, 0.3449063868795627, 0.2041527005884489, 0.4574333988311553, 0.4643129417599112, 0.33049975529718056, 0.21984198880542247, -0.009010378968418354, -0.014622997288281208, -0.004690437569219651, 0.10842010877585885, -0.010620071706399604, 0.010650426104017893, 0.0052407809686893, -0.03759570489166156, -0.11970129071485582, 0.07878236389385422, 0.30242854646437134, 0.5681009098025526, 0.580886890678686, 0.33018379348711985, 0.14508654697153348, 0.16038509488110478, 0.013814594515025022, 0.15161217270916688, 0.39446245662664836, 0.2540444349775386, -0.044401587368581616, -0.07278047187620204, 0.14959668947164206, 0.39450962248317195, 0.4091271114604369, 0.30590154369351896, 0.017681094712334446, -0.05710689429608142, -0.010894032690883933, -0.03078216927360462, -0.003455454578771564, 0.011224257860899266, 0.07637125708545275, -0.02434573157434391, 0.09130672413963184, -0.0037542395725246457, -0.16562269631386414, -0.05428737845172945, 0.08461466465671638, 0.4881119576367477, 0.516122612357927, 0.36798868726897055, 0.29000108731351076, 0.2222592415259421, -0.04982226729081376, 0.2023906323748169, 0.38213298885535635, 0.1437058520610403, -0.09440263567387647, -0.3005410276915347, -0.017913952043641015, 0.17072768815668993, 0.19314578774942298, 0.14485707382169938, 0.04351603097356773, -0.1386722998790159, -0.1000029825696507, 0.01171635921430451, -0.020621022597380495, 0.020364246723642586, 0.022091426865650635, 0.006934272130221198, 0.0521258178064612, -0.038621041530757225, -0.2317462134714708, -0.2948789381991993, -0.2793242729851269, 0.1767981535422616, 0.26714330134022674, 0.38021135588042965, 0.5766856565285243, 0.5592436161522205, 0.4336182808600879, 0.39705871695445394, 0.3664189073742175, 0.06848939881048859, -0.07684110155121024, -0.1843709774575287, -0.2025580130081351, 0.05640860970301164, 0.02229269264786112, 0.0006561854726014404, -0.0851864166583897, -0.18289605625319935, -0.23448489442944143, -0.02084706802674202, -0.017788278618846704, 0.01798460648369333, -0.012671922031430501, -0.02968454934887817, 0.05826650337676878, -0.16487344806663787, -0.2434156255669606, -0.3660983786352588, -0.1586770282033184, -0.3007018803384154, -0.36395213438771157, -0.14300635348741644, 0.22745961252398833, 0.23299820702267995, 0.3415464547465068, 0.2295806111248792, -0.11914253661763202, -0.15190711331544018, -0.10456144346315653, -0.22407780526860413, -0.28116959855776597, -0.2938340969324034, -0.49822991264278593, -0.47876447297478053, -0.2927657288614697, -0.24778553660963484, -0.09917222306779465, 0.0020450384988432435, -0.014914667993856715, 0.056552362984166285, -0.046095657077934615, 0.02253969423886668, 0.007277159323544052, -0.16076878199281236, -0.27392170052192844, -0.32162236372121406, -0.3535497035735191, -0.6277580588200995, -0.7881516844675527, -0.4974812165737725, 0.05406204397883491, -0.18580120389498841, 0.14336212608956672, 0.13348997929056527, 0.07174181418112256, -0.29326353742983013, 0.10883427731053283, -0.16228562863328513, -0.13790770245961514, -0.4289906683577814, -0.6721269917825562, -0.5177650539216533, -0.4589479046974552, -0.24405525456399127, 0.03816981017526613, 0.05435278761391853, -0.01933210917184068, 0.05261257567128274, -0.029574871906089577, 0.03082178960643498, -0.04723402333059841, -0.08554485328865084, -0.1358453868098935, -0.17030094539265087, -0.3892623519604222, -0.6473306659550152, -0.4049253324017385, -0.4443356967917025, -0.26339542941058086, -0.6011673102200497, -0.16367861961421867, -0.00017133140003749227, -0.1764444575100663, -0.12076346399744614, -0.2034620720379678, -0.20613142823509673, -0.18670591122126867, -0.4509109092399724, -0.6405088561799585, -0.6000566184080188, -0.32481014745500975, -0.11768036903723585, 0.047479593852053616, -0.07271807509824883, 0.007935470406538202, -0.0423652875145236, -0.03747124490548353, -0.02555862291732761, -0.0139475118336603, 0.013531821758700739, -0.10700571233557712, 0.03286598894367355, -0.32432482814152136, -0.4456775021742104, -0.137296184419209, -0.21899423089746836, -0.3857521214373372, -0.6718276996668858, -0.7798125934592012, -0.6456073239518959, -0.7809121390189613, -0.3339339257594126, -0.5765316963146665, -0.384302886502435, -0.12292189515772936, -0.20211107253469252, -0.4024534567913226, -0.4172360597964341, -0.19459110049904402, -0.05069265660985112, 0.015368203975041232, -0.0284724761916003, 0.052851680117544424, 0.06419087051308851, -0.04907969666208787, -0.0365310372174224, 0.0014134825283931246, -0.013175049603642585, -0.014469006669238223, 0.10155160348442423, -0.019068718821379973, 0.09373809472449761, 0.02746374010993798, -0.10209363401341419, -0.17460898026444055, -0.4068963051038182, -0.3879010223333763, -0.5282225774757687, -0.810683200228203, -0.6731717620615136, -0.5733621125500817, -0.32946478272457813, -0.13006395520990238, -0.13491694289170816, -0.26498384801811575, -0.20909820216520708, -0.09190313052422952, 0.04541026630851779, 0.009604841215956485, 0.027438637927903273, -0.10484250973544613, -0.02067464371301041, 0.043558792931228864, 0.0015861367890647286, -0.008178703053943815, 0.024824125514754023, 0.04632438480639519, 0.11304741721219576, -0.04852421005424746, -0.02390654883179136, -0.045179182054416935, -0.13015660820023953, 0.02668790809601005, -0.28361036916734944, -0.22108703431863355, -0.34091618621021347, -0.2729056199936742, -0.1871936499689116, -0.5822779215563005, -0.3306172234658756, -0.11342315359914903, -0.020604358015967644, -0.1335500586187076, -0.07772068897481316, -0.03579495039147374, 0.040591324878664764, -0.04267492965490396, -0.03987873461619546, 0.0009742074694175848, 0.032468965761025766, 0.009647315663029012, 0.02170811477027489, -0.0035097772589062523, 0.07102208516260121, 0.07467148348161261, 0.05102467572770177, -0.006229970201728308, 0.007633234956689503, 0.03144989582145252, 0.05559704556876972, -0.02677598726797578, 0.08173696981522227, 0.17950324424668218, 0.06503677178826649, 0.07347624256777903, 0.0979062157777976, -0.13675133408834536, -0.12748142913982868, 0.006817248734294484, -0.09254605314362169, -0.06274326162985018, 0.07127812502403158, 0.04103620123044304, -0.0008678079052177975, -0.03155655610926494, 0.02896984522783346, -0.00346030520783568, -0.017381868941306784, 0.03390307628131035, 0.03557264918771167, -0.033341375424228166, 0.04429016810350326, 0.04719957435774297, -0.047813403697002564, 0.026293007543094306, -0.01260777122474198, 0.10993499900149192, 0.14188978644868555, 0.03129981953528616, 0.03002507257164335, 0.011351054938901739, 0.07634306053441216, 0.16992844715426378, 0.10954636408127831, 0.01875004807252115, 0.05587988213194858, 0.057548838485890826, 0.009996992135812054, 0.016788551993934357, 0.05487229306748223, 0.06328241379534226, 0.018137853410211326, 0.036937430692598576, 0.02327313184928662, -0.037479492561420046, -0.0027293381254521877, -0.03252346138391984, -0.013248625692994235, -0.069005556669905, -0.05246888541553801, -0.018804760981000288, -0.029526675461139018, -0.01049326341434123, 0.0218860923204141, -0.02996923797010329, 0.0985098705200431, 0.017922277928258443, -0.03108981011619091, -0.019115295526241274, 0.052063275261093354, 0.019343153318302275, 0.004834687317869084, 0.043406243716707024, 0.03987443390930822, 0.04920886600686909, 0.04405910136890525, 0.02176726133267167, -0.0161708610241068, 0.00379254275608943, 0.05119581296909837, 0.03273799715869446, -0.029752790245375645, -0.02782277150820723, -0.0011276001258386421], [0.05311586292002089, 0.024657188427390307, 0.04625724084816439, 0.024591693912565934, -0.03447859899091399, 0.04467315523775112, -0.019822441047590924, -0.007948070649954793, -0.05340553428929987, 0.00256287936403048, -0.05655753505770201, 0.017947541941698404, 0.018939430492983293, -0.004779994044318113, 0.03964846105627663, 0.029208155228751864, 0.03682172320556545, -0.016388673980069598, -0.03607211160017888, -0.05750492986322409, 0.046995177234067854, 0.0016954750275385577, 0.004623014479687886, -0.057022394305458, 0.07282374822475572, -0.02183498511739249, 0.030183865761463886, 0.031809268877379886, -0.08137257892245879, 0.04154855467232304, 0.01397404812273115, 0.0009965364252543386, 0.019038317297344703, -0.03378987529517117, -0.058751864330970245, 0.010386984000163583, 0.008485745119774823, -0.0025016773860575734, 0.06699674242659553, 0.002039792989193038, 0.0053163915566831425, -0.04998598169668166, 0.020575617599178597, -0.028442383969473968, 0.05554735292590071, -0.016194610570026597, 0.0451137236960954, 0.008699811980589191, 0.024977452517535602, -0.007772888285925727, 0.03501276403860624, 0.045442087568115984, -0.06700216989555859, -0.01357904038217651, -0.0495439598949277, -0.03810743053394915, 0.00567565088687755, -0.006272207602168053, 0.09562771283964482, -0.0008918049742356251, 0.0252201389841745, -0.03813199605329711, -0.01340272738090673, -0.010967329210688301, -0.027597995676275654, 0.08554681778863388, 0.013868561266169529, 0.031793796710266234, -0.029768823683358703, 0.06907571017093203, 0.07026548004194441, 0.02994592412227524, 0.018966097371452374, 0.12301115427020534, 0.019038274547691348, 0.015321020525063943, -0.04748398391015578, -0.0057831637493953114, -0.0318874807541078, 0.007393831859469538, 0.04238531356614538, 0.013598296851588806, -0.04086041492035306, 0.0035253724519349714, 0.02446756614048828, -0.006434699035862134, -0.03456173154032214, 0.07073791183724688, -0.026610900769791862, -0.018065808491637768, -0.07052942702906878, 0.03667465440072917, 0.041556966450734874, 0.09915419588356815, 0.06826593621153645, 0.16681353499130908, 0.1166129681755667, 0.22429461713380344, 0.09026839421165687, 0.1075746952395901, 0.3678028955300615, 0.2445167234545761, 0.12388444041327872, 0.0693348747381643, 0.11618515082432206, 0.0949795141059368, -0.03535419707571302, -0.04138136805928821, 0.019810753070368028, -0.09019194247198153, -0.008537794643731163, 0.020007909861841502, -0.018942779369610842, 0.005715018432718185, 0.0037432150411639943, 0.042838452023621285, 0.03484136392006991, 0.05314095020471914, -0.034954950779352845, 0.0013068948717688226, 0.050761655488199324, 0.2522950268234679, 0.290719636717987, 0.32658020598865933, 0.20921387508120354, 0.0469852680162042, -0.09705262486972832, 0.15968933094207052, 0.36686111807410243, 0.21343905569286106, 0.1646986996654705, 0.13757199348611898, 0.05544838440527027, -0.026139063752478875, -0.19178397177645515, -0.07880933371053031, -0.006686570748315019, -0.0040182759650535665, -0.030498116107718277, -0.013065844863507642, -0.026833714744829287, 0.024051399420616213, -0.08465092918289971, -0.025383882059127987, 0.04568766753027718, 0.0028521688306536504, 0.08461290528876883, 0.19179813331121873, 0.3087467083311022, 0.2440954915202181, 0.4639880136207737, 0.43260217127126205, 0.3039316854286252, 0.17147117784235652, -0.14006091562123926, -0.023601452902934326, 0.33710519034857606, 0.1321671060205273, -0.17381125802809191, 0.03685155199780079, -0.01550244019895188, -0.0010996315875117485, -0.2584362793027943, -0.13868827623157026, 0.02337931382632291, 0.015936964230028505, -0.024669707256778885, 0.06504437195971507, 0.007668865235625265, -0.03963393750792338, 0.013364945524696002, 0.03706186541234725, -0.008048458289858191, 0.03125469527975249, 0.2049411193688299, 0.1838363149290778, 0.4095866647458295, 0.31808298610553676, 0.37789169983537724, 0.27215330937970206, 0.21740970154520214, 0.37824240590962926, -0.07059092699603724, -0.13892789536697833, -0.06915085095440175, 0.037858567199742905, -0.17770546834917048, 0.019472153415479823, -0.23951479237590115, -0.11966779793732978, -0.13934859461849922, -0.0031673454287624594, 0.08971196670052416, 0.020972990056411088, 0.004147363143445531, 0.017737692499650418, 0.023298229200556846, -0.006615706969136181, -0.0026683391015707813, 0.014760062377263588, 0.017160602164008505, 0.08509126150420196, 0.22097700867072903, 0.2761921949729633, 0.35979281199640134, 0.3291369107634414, 0.18229683148302694, 0.18969154045511974, 0.00036351110528428233, 0.1790872210036525, -0.008155622323513584, 0.12549781475099728, -0.0006102054005917949, 0.027643420999182607, -0.09582597687804142, -0.2096732130739851, -0.24537411699816136, -0.014280476334922035, -0.08076849785792116, 0.1496462892988326, 0.17278752657803784, 0.08984135366011971, -0.08469097141261292, 0.01256913295064998, 0.10303435920976857, -0.00973060541726242, 0.02421729877607105, 0.012778052843969726, -0.03130733577626435, 0.05075452239584823, 0.17558815529075159, 0.23412132371719688, 0.1813226693464174, 0.18469591073769895, 0.2091052067106604, 0.28726292736707243, -0.04974340261055684, -0.3577246911057455, -0.4420744532913542, -0.18818556350899454, 0.06349597887210631, 0.10336719392607568, 0.012301825106209717, -0.06668258584378878, 0.08252465619841766, 0.10891979177286475, 0.09241805100220196, 0.2587865648809722, 0.2676015707167771, 0.10774380857765234, -0.014601093916385076, -0.007472094002381977, 0.010483476126745998, -0.041608609717669415, -0.056199164689669207, -0.028316012386300764, -0.008612071441182251, 0.042766062492532196, 0.09388702979339623, 0.12757949350148287, 0.03455091725163207, 0.1360955728054143, 0.2622472733553147, 0.40701737159792944, -0.04850539913572279, -0.5342752359405143, -0.41255020399822834, -0.3147835046316118, -0.23529245231829643, 0.0022699163391754667, -0.07176403411642393, 0.0203092237766296, 0.10311940391333008, 0.17001363683407525, 0.11881516294648944, 0.037533988127448514, -0.031281018482038465, 0.018522113865108797, -0.04502186490924341, -0.010344437937184408, 0.040201020944637844, -0.043132434272120934, 0.0439261775265548, 0.014530336585093458, -0.015149622160354361, -0.006810239803272168, 0.13783176687388463, 0.20382545842670363, 0.19204146297820165, 0.24588729423475628, 0.3937457703484818, 0.24853536641138876, -0.05970024595556592, -0.5575587329699101, -0.5295530697313447, -0.7082170015161517, -0.2010035063518857, 0.025152804233067684, -0.05612979268892514, -0.0729487679854229, 0.05168930000108435, -0.009636959520001329, -0.07805526117626002, -0.05192834459170253, -0.054507588381100834, -5.680229676422535e-05, 0.030445050455580096, 0.013490848311046853, -0.008246224770471142, -0.05170323125333689, -0.010644365983464913, -0.01967657161132459, 0.030140851615371087, 0.15339719349962447, 0.07782749656680621, 0.2700873664004347, 0.2574972501603558, 0.2759831550353379, 0.3524458471196148, 0.10600374409851873, -0.22710858850277088, -0.4096077604393601, -0.683927389977357, -0.5094332812474404, -0.30526101538040257, -0.03432633629981522, -0.1324115960737183, 0.04175593889850592, 0.11432470160571155, -0.07240967593631174, -0.020755797834381556, -0.046353881263628154, -0.05837103359331889, 0.0005286434069220815, 0.036587563071954626, -0.01242668166835687, -0.015722989369414107, -0.015844389165493175, -0.02061301837796924, -0.022785808088146155, 0.017826689988425345, 0.08460514249221988, 0.1507690281097179, 0.11102914473223938, 0.0622862354886481, 0.10316043913211416, 0.14064600501660635, -0.03708039700958418, -0.19686034892809426, -0.24443831714216327, -0.4156960312441008, -0.48535235839567725, -0.2634606183223366, -0.11407918757530536, -0.0943595858771522, 0.22345021843745969, 0.25243757946127476, 0.0780435186012217, 0.09090433065778149, 0.05369125881756975, 0.06799628241120019, 0.01761962728431099, 0.03809150505375081, -0.05114220332867915, 0.025061219442748816, -0.0004853372006750087, 0.03800104738127884, -0.037887625656281454, 0.04809321822411726, 0.05040386933778195, 0.016778656452483807, -0.021972525162669926, 0.049630292504157354, 0.04640671279725166, 0.06338707925196482, 0.08101915186529288, 0.05782673212565324, 0.14278865667864132, -0.24016613955485958, -0.1680831552230693, -0.09893648444079428, -0.1468748599017678, 0.3149695056972542, 0.24989497084660817, 0.22392509565255111, 0.11306443866425879, 0.09020493749009505, 0.07340833930130157, 0.12668401564769868, 0.021318176869950266, 0.024606865854478632, 0.043119356028244245, -0.009183544158623297, 0.05764505553406521, -0.069612588327848, -0.0557797127073746, 0.03459782747951053, 0.08400405628436926, 0.03763838851991822, 0.10968217938251451, 0.1328806875871384, 0.1252827530305387, 0.0736105880071893, 0.11118580926439718, 0.20225587867718633, 0.23529224348575553, 0.04375591188296549, -0.20130403710756883, -0.21723012180190526, 0.032804355351790826, 0.2749692129877979, 0.2000170572986006, 0.3498519367367533, 0.24936031072746573, 0.24516146369550668, 0.19821121798245733, 0.15080305706461222, 0.0015707976102479918, 0.004520959273297907, -0.0028821497914267857, 0.01835230711958356, 0.005072401138335203, -0.0014665139544266224, 0.025357161853287537, 0.01817742918767443, 0.1245670166755366, 0.09235000555483204, 0.06254405299199106, 0.04139793203906322, 0.03684238733885484, -0.08648549002535881, -0.09310910260884639, 0.0739795511811397, 0.1564540326527913, -0.13952006512719548, -0.1616603867682497, -0.10507537750381088, 0.19793232874390904, 0.1254990768623776, 0.27576124517716155, 0.2051551849627577, 0.22557484547344245, 0.1866367076225123, 0.1374091138512703, 0.07647658786472238, 0.035391720307896134, 0.02279975969812474, 0.027637749484103736, -0.07117077563668468, 0.011046633655678846, -0.004781645345699768, 0.03329080942943399, 0.04488215357160419, -0.03660727037284664, 0.05408432546894986, 0.08099151385935086, 0.0013745475335126313, -0.15015799176983546, -0.06908347655090069, -0.17695188188274408, 0.04749465630300325, -0.11284175021331388, -0.17807162249305059, -0.025308980486680656, 0.08243301485664797, 0.39109316162405783, 0.3132343578980489, 0.18280449630051943, 0.15477475850261094, 0.16939850634875248, 0.14136394445178493, 0.1391132923369903, 0.05475066501131122, 0.04470415545293333, -0.030037797996479126, -0.003297153535351149, -0.02588954859189487, 0.06114667586886024, -0.05238580589716334, 0.00617002986369629, -0.003007043471168092, 0.011537615737538988, 0.10150038824309547, 0.09336304162484506, 0.030653511399841668, -0.07884454177494869, -0.08079775742384106, -0.16034840173021014, -0.11864774404654772, -0.16050808396697905, -0.10096204455150896, 0.29444907614674587, 0.33837173932969683, 0.4859087899463012, 0.3167604072449294, 0.2675530277635962, 0.17574422343041118, 0.22953221397175722, 0.27247199635288655, 0.12209475091446756, 0.04065444785332711, -0.03632783722957214, 0.059922133460240085, 0.042639053572847176, 0.0361860006945021, -0.011645036201113021, 0.006414437216560705, 0.01089358561367097, -0.07790887409411704, 0.1124812347530354, 0.13912470738421925, 0.024292757668400243, 0.1172617622188403, 0.011525235228535756, -0.024998736378953675, -0.14518639248747717, -0.07748353611340424, 0.06065969951009, 0.017936820262291302, 0.3004856812128507, 0.4710737058246115, 0.287292653533141, 0.2775328529490292, 0.23769886630245357, 0.20281937900759456, 0.1387034429241145, 0.16991840828994367, 0.0678591494136284, -0.0771339680736656, -0.12948467039271017, -0.027962468147921977, 0.0664125951340938, 0.030857645204750216, -0.030747399472858004, 0.01838643795776549, 0.017083129739868332, 0.033040195292810375, 0.16848376344152155, 0.1562227185807426, 0.16707356430268838, 0.2177791921663376, -0.04450771069724788, 0.26386966674828594, 0.23666710621312909, 0.3073758026953598, 0.04787436806634525, 0.2830137732284263, 0.30310155587738297, 0.223971135374101, 0.10715310160726188, 0.25751299799672867, 0.30421014490750004, 0.2668296387433413, 0.15093541517458667, 0.14795044801273463, -0.0015734467923932479, -0.044383075778032376, -0.020927299591453875, -0.07721699541776478, -0.004524322005588294, 0.007327311813564895, -0.03430652840272852, 0.0546011161756517, 0.0019696189571925477, -0.01941464933695065, 0.13221491513992611, 0.15189714459684348, 0.19479299235557307, 0.21539053232996697, 0.16241183068854256, 0.0793564670773483, 0.2231291391573465, 0.032135732945906936, 0.20775245906914477, 0.24502490182608588, 0.008528447336664595, -0.12001171397615976, -0.03423024706743581, 0.20517749157860923, 0.17411199217040788, 0.14719222856959407, 0.1466862826788159, 0.04004947327063682, 0.028514580854572737, -0.12840569123713153, -0.03008000480406402, -0.007220895387264429, 0.03308528415638879, -0.0050627997496454245, -0.00960712229784293, 0.011732029950125407, -0.06775729946350673, -0.02061155954489964, 0.040158944072160294, 0.1240091060958099, 0.11610549706892277, 0.03773190589440091, 0.12997205782366394, -0.08216257614388169, 0.22813732842752918, 0.12179844554485204, 0.2508267946637981, 0.08504272952980087, -0.08271913065437357, -0.006060673624790067, -0.0073657436425828, 0.10662399014669503, 0.1927696458202797, 0.23385833887967672, 0.14178083059158547, 0.057889006492994395, -0.04901920179777305, -0.129614853157253, 0.028369392697741847, -0.04637481534622513, 0.024771716714900312, -0.026777627151539942, -0.01911184404210765, 0.005788782783172777, -0.03584771936631424, -0.028198897103968133, -0.12074959735665047, -0.04799677576442373, -0.04254480078832424, -0.053368596642378, 0.05995998260345765, -0.0989704125014051, -0.022209304134723818, 0.11184627213637614, 0.13045572784279086, -0.0813313107402422, -0.08127030490947104, -0.032838759982807504, -0.0931755352155375, 0.08356875186460754, 0.19407776705989271, 0.28160753647392, 0.06152698353020671, 0.03317405387963149, 0.01204713097996596, 0.01791765119777155, 0.034889318210873, 0.002509825037627247, 0.0472274168884003, 0.04885206234474054, 0.014438303739024683, 0.012126092386033321, 0.002865027765385112, -0.0403911168835231, -0.09560469428448468, -0.18472503846922464, -0.19626215212787365, -0.18590432636564225, -0.014768081522776352, -0.0005210824704645816, -0.11246439811906883, -0.08162147764252037, -0.04958023715043257, 0.05611110501860209, -0.10810401940920349, -0.1346664433937593, -0.22767626517204206, -0.11375184230093022, -0.06063864515470151, 0.10312274752059045, 0.13414558279642302, 0.07594260474850839, 0.035671815707335054, -0.02427601500834487, 0.014251326359865658, 0.026868846296475686, 0.029573833431999128, -0.037544490226304184, -0.006019083987742679, 0.0370479104707232, -0.020010729713339528, 0.037810530852243666, -0.07975267606620468, 0.13651410126109226, 0.012843826833915816, -0.03664610999247834, 0.05802009641976261, 0.024675317012736887, 0.14905392518182856, 0.2548259332304319, 0.21650115624699318, 0.1789898384789823, -0.06099458373372071, 0.19253253353486727, 0.001297501863422596, 0.05181286447998805, -0.0542068517199009, -0.005868107860351098, 0.04293528162731763, 0.06794771989428777, -0.03072175728712058, -0.049346962435067455, 0.06380454603110879, 0.0020125727151873787, -0.06361095349135912, -0.007332790421515423, 0.002983458627759459, 0.012413787229671428, 0.018966790109645602, 0.041422487937077396, 0.041234486303131285, 0.09612027383279444, 0.15419294566724015, 0.13511417231185285, 0.2289985905673345, 0.2704633286797659, 0.22688208772588442, 0.12749805126273617, 0.17085614161370136, -0.001900252241001684, -0.013965192850200214, 0.004365645538932048, 0.07966810755552978, 0.07913859471176773, 0.040861319168727255, 0.04004881872187158, -0.016574986669191924, 0.009129143849370124, 0.015116543478662262, -0.01738810450688631, -0.03858925860782574, -0.0033352843401991197, -0.006681761060393557, -0.010907906642870861, -0.0032575233149872637, -0.026004104218311487, 0.033842339757415324, 0.04783311119029087, 0.044703731408361334, -0.011396964585121913, 0.05828855201985188, -0.012586320327361266, 0.019900392947877012, 0.040911020566710095, 0.09391829745479237, 0.07908670890584797, 0.04982677054680561, -0.0427153373176401, 0.026151898408515107, 0.038416944496909584, 0.02337142735393747, 0.02519677132571466, -0.03298312925113456, 0.028419908025073284, 0.04310613962258396, -0.023963173764659625, -0.01932981557664647, 0.014893387091143758, 0.00387495531529738, -0.03203129500423414, 0.03347484199763539, -0.02663688545851172, -0.08340809309841987, -0.028260984540028438, -0.012985718364466301, 0.01908423653837179, 0.04905929528279622, 0.027514014746599442, 0.02474083971647349, -0.05586264645411145, 0.019996847702862367, -0.0012787635680952688, 0.022442407707186224, 0.008286646507950165, 0.012156646107794631, 0.021926435362768965, -0.009841769922136343, 0.0007657361722235092, -0.026969267137688366, 0.012018076714270283, 0.010764290082782063, -0.01541207276722821, 0.05488922122433457, -0.018179417476216517, 0.03947037504794322, 0.01991810291748736, -0.0008730235185993639, -0.028353574802982593, 0.008376095231847042], [0.019927351247534007, 0.03857196193270129, -0.033965217161933556, 0.038738049502787385, 0.051614553049542586, 0.01426877791488329, 0.06419517555523603, -0.019209560721429174, -0.03393025693773372, 0.019487856777441786, -0.031128246503222743, -0.014886748263178538, 0.055556032032305525, 0.043147268740290984, -0.022501496173274703, -0.008876046355432123, -0.0421002564607235, -0.020667879793129732, -0.05261460977033502, 0.03351119147508399, -0.002939617450637876, -0.012345190924101686, 0.03323192289862141, -0.011653093575463248, -0.005899105344214818, -0.01181841902351024, 0.0197534622295611, -0.02421454886802891, 0.0360266726641292, 0.024736034890028034, 0.018591587670213072, 0.011777953220823494, -0.04466483866705163, -0.034839334015122916, 0.029951732066218498, 0.023557115604058834, 0.026730024849425063, -0.03513323683582229, 0.018445691059430003, 0.03493689089704373, 0.0032978327719067357, 0.012075583409738463, -0.04385725485268395, -0.10701686312821962, 0.004374649799946966, -8.939416091002176e-05, 0.040717190758191746, -0.04268577078355379, 0.0312201707129327, 0.05192169593900397, -0.02806705744541727, -0.031249487436065516, 0.0034093256191617227, 0.06397330089902006, -0.0003648588483475275, 0.004628606707595512, -0.032100296659636006, 0.022645526758560398, -0.030307462504745173, 0.06126609640920387, -0.04687662122830076, 0.007716783606016999, 0.0006058481517974997, -0.048335168856844156, 0.014174230067351428, -0.01658010650755545, -0.001847623890212706, -0.017246464305306308, -0.10486217151851641, -0.023278961753696915, -0.011723187925615287, -0.039551383537829915, 0.0047427402017817645, 0.08872899890879801, 0.049773982627753864, 0.027941078383886608, 0.043546134419198884, 0.036094235589364185, 0.05796472545309229, 0.02740114567641756, -0.0012901946228994516, 0.023841861106895866, -0.04046833339051448, 0.015635203902987657, 0.040474001019677706, 0.012465380743710423, -0.02424879956272063, -0.02416617240723909, 0.05815605757848916, -0.008686204878791194, -0.005560770716683605, 0.014631709793354415, 0.012418006879256958, -0.014591132658387046, -0.03642491455491316, -0.08609311719157896, -0.058551646344767797, -0.05976322165353209, -0.03900354713639236, -0.037127889735241365, -0.009018607580980496, 0.03609934325231289, -0.01688071170655524, 0.05349138947523664, 0.03967549016665687, 0.07598785758508779, 0.07997692222540868, 0.033806877804217754, 0.06461321109958151, -0.030570523381595185, 0.07481396641183442, 0.0025037304337835074, -0.0274584694526919, -0.028084145897195625, -0.025507941631554645, 3.976348474523461e-05, 0.007622691451871525, 0.028748006873771388, 0.05388102347075192, 0.07023747876241511, 0.03485364908383849, 0.0708992405014572, -0.10077463903265786, -0.21097444878669305, -0.02370046825452544, -0.019677722657188507, -0.07300513131653559, -0.17371674814489008, -0.24832457694457283, -0.14059068374397998, -0.029919725053037725, -0.03134154128937656, 0.10518171335835846, 0.10729113190566275, 0.15193076541490388, 0.05125273801539317, 0.0708168910635372, -0.12497263327489032, -0.02566601169525181, -0.01320486356020194, -0.0009660766033086259, -0.006925370450285855, 0.029777986860551785, 0.003586825302941178, -0.020622436912446213, -0.0014115373557446918, 0.06699094957071107, 0.020274970596933412, 0.11428686535569091, 0.13747825846991407, 0.03440063376324079, -0.11530012773037442, -0.0079076298729004, -0.1579884338798263, -0.11086943420144298, -0.21624057364639274, -0.2675654352967608, -0.17806488692410605, -0.17319372298995997, -0.17090653824702018, -0.13808154415189455, 0.007940578658796457, 0.06116404429614833, 0.08231152290286978, 0.0003892197013777094, 0.007658951706948503, -0.007067201490996024, -0.004854448962319725, -0.0011257250805320595, -0.019716650253823787, 0.015576343594541393, -0.03890517220665335, -0.025611873574608732, 0.06894479863219913, 0.07646387500475052, 0.19870086589274294, 0.18195863661061304, 0.08761764195841105, -0.04749464155535206, -0.023360519308553256, 0.016162198407895637, -0.12181922884682499, -0.03620280904288656, -0.09117132551061403, -0.1575215516559109, -0.06459405732856614, -0.16403745847300463, 0.0024366260661226324, -0.18826722327866363, 0.06623180858075728, 0.06114949749338738, 0.14372843636380436, -0.008135022251158724, -0.05144895587195054, -0.07091066448344857, 0.05754197927990519, 0.043513364273683124, 0.01755865455775771, 0.0005354820930686347, 0.08105285729538493, 0.041354013139795066, 0.16573211487857517, 0.20942834667035018, 0.19043344696195094, 0.2630757882903824, 0.10777570171999476, -0.050647363038468396, 0.11843772786984307, -0.08043431558171207, -0.14742748921777798, -0.0682229131940753, -0.309005359862374, -0.2517792863473646, 0.055543455723418934, -0.005057971172824954, 0.022478184692448982, 0.010016323617680315, 0.0816804593290388, 0.06718278525814363, 0.05671974908985989, -0.09094258798755987, -0.1321619093365518, -0.006371514587130575, -0.04837049024965659, -0.03339436753368118, -0.021315813650762648, 0.06318533892178743, 0.02559787250699892, 0.06869940856726112, 0.23964782721461605, 0.2719338376361653, 0.1666715875967903, 0.2531896716106062, 0.28211528904852373, -0.020340222568017718, -0.06204449637002206, -0.11778246508131338, 0.04873514362138387, -0.0813086231375291, -0.17795766862913248, -0.2906869755891758, -0.24007495760858072, -0.231357266199403, -0.042728746948356086, -0.07810948866278652, -0.08433613695751864, -0.049094224790650426, -0.09079462912424814, -0.07501359607182834, -0.05313902707965957, -0.06635052825894905, -0.0059502955805516, -0.023051272450686038, 0.006864533339772471, 0.010926051643921946, 0.05088728080592041, 0.017607272814228286, 0.15008688045817742, -0.0006860034899580543, 0.20209620746029966, 0.2729648680421621, 0.02888197431582824, -0.0930140610636907, 0.008000612545583012, -0.0692941512907047, -0.043226960914003, -0.2551387227072156, -0.22206064672547768, -0.20712516793821284, -0.10933083858490862, -0.34581194544190885, -0.11263261707712062, -0.22590232625076606, -0.1631735691844438, -0.20018441723682265, -0.3057320911588774, -0.2141895934305176, -0.10689337774920747, 0.0001263646250966936, 0.04881932492043308, 0.025776364800997438, -0.01851781285885965, 0.021506517405947702, 0.059195025403039205, 0.009744044447769617, -0.04895683629627631, -0.13785803085684223, -0.10326454685437197, -0.11049040906430763, -0.15001990516825564, -0.020525843427635828, -0.1331795851712306, -0.22709176574948248, -0.30789902348918224, -0.47265121000691707, -0.14245550346380512, 0.18559593026901616, 0.2347894724659639, -0.08341707197253427, -0.07040213319133172, -0.11998047273763429, -0.1264342093596428, -0.17772723204562166, -0.3750482747554853, -0.17353542742683473, -0.08745904383497854, -0.0021348799410350057, 0.029801571774891223, 0.0034053437770761304, -0.0003361043448423695, -0.005995128104096045, 0.06253794641742709, 0.03531112346149598, -0.1177389854996778, -0.1894733690261395, -0.17204334885782424, -0.03106359000753239, -0.042505755385399344, 0.2399370069331758, 0.03508807510877593, 0.0665312930594917, -0.47138820282049676, -0.4611883134759522, 0.04511735645917589, 0.523128523603721, 0.39786637320557455, -0.0317633449462004, 0.08536661465706685, 0.019804844145850858, 0.01213532598846128, -0.059680129473106046, -0.26830444252952473, -0.16835892534272248, -0.04246054528204108, -0.05459201640351886, -0.0153978465434201, 0.04598572376180122, 0.07261038882597466, 0.0875065278744285, -0.04741477053414855, 0.013727240572983699, -0.17234213067314808, -0.16883329481543566, 0.004067602004374984, 0.23821636372102797, 0.07391591320490103, 0.30035612218800894, 0.3521050591660998, -0.03332231015958542, -0.4924826118919136, -0.4408494709239427, 0.00760952981827048, 0.35588612646647216, 0.23048207234115717, -0.06871252803002682, 0.061981319296203846, 0.15115376998696725, 0.1364867701574329, 0.08675050929586947, -0.17676068535781242, -0.1322417540713661, -0.13758519969011979, -0.040371101346252464, -0.07769063959200385, 0.009508273930811769, 0.002198542326761784, 0.001292573586995568, 0.038118459381042365, -0.049222823458896184, -0.11446086827116127, -0.2052481450999795, 0.17478310004864236, 0.10118441767628002, -0.036475068854323264, 0.05464126812372206, 0.1867328943831527, -0.2892825119166384, -0.6485036736788348, -0.38088652988845134, 0.19057784847960313, 0.0913557524529897, 0.017279776928522266, 0.034827637747388104, 0.29923176340555274, 0.3219075496107116, 0.21122303500962875, -0.0016808564007300389, -0.23235532714302023, -0.1587153635098726, -0.02537262918145936, -0.0012857439750329721, 0.006621843002516029, 0.020786190423729572, -0.01524499702915947, 0.004045090349819463, -0.04394844974908549, 0.1658595991063702, 0.08237165488596745, -0.008362469368211696, 0.14552708227380456, -0.08316318959728992, 0.012475843396487468, 0.0418371227680801, 0.04596380845410134, -0.4349453057951716, -0.5943862359457842, -0.18143276718818313, 0.20240880317604026, 0.21963758194908095, 0.48472340535942193, 0.40303861377558314, 0.40250250880818317, 0.349497939646312, 0.1059222569569803, 0.10680567593051189, -0.05304962053791139, -0.12935332196960633, 0.007919421694362449, -0.04660629114867936, 0.003904773113703881, -0.027741246654415165, -0.06621359980723883, -0.014320542943252437, 0.04621609618175142, 0.003907809539958349, -0.05519656613640791, 0.1476873286527007, 0.12424883491976016, -0.015280219494134733, 0.007912937093241906, 0.0010499863081969906, -0.13024595966308194, -0.3491145428392912, -0.39193298460768683, -0.04364828749447176, 0.24779170759588137, 0.44406488191603205, 0.5856089692395756, 0.25692725961294927, 0.20889820856132027, 0.26605644371703874, 0.1819213736896522, 0.08508679839828051, 0.015038256637688086, -0.11885991739644795, 0.01814096163203937, -0.018032079860447296, -0.005187439641343108, -0.07119972592867391, 0.0324762848257081, -0.01460991211960599, 0.050269626872638924, -0.03238053706433864, -0.11084049089903371, -0.0026671362566793957, 0.15701552029798801, 0.24431575844733827, 0.058541658876788825, -0.10324790711923966, -0.1003431005748505, -0.1569644594114873, -0.19487233506300505, 0.11385843571462831, 0.3433400993808164, 0.40214639480359743, 0.2728513532065626, 0.1337770793373586, 0.25836711175647403, 0.3264994289145572, 0.10616238527793993, -0.11463507096194174, -0.21991853813342155, -0.19943642079226978, -0.0507022534801167, -0.06318420710703321, 0.009500218553631628, -0.02689209378267216, -0.003232965988677125, -0.014166844655104822, -0.010420375750829486, -0.12510584384794982, -0.1329661970221105, -0.1973203451114396, -0.07956188977091659, 0.0530918456396489, -0.003244093244336832, -0.21249392470053308, -0.18317407356239307, -0.28372688226748205, -0.03409237755631756, 0.28122103161993595, 0.25907893965995765, 0.27585864961883844, 0.2655292809362507, 0.3478000880386854, 0.24990544622477343, 0.20234488047068577, -0.0043337581105114265, -0.22512810359312174, -0.30466409420889023, -0.13174963234431006, 0.04202789046877813, -0.038282619585748516, -0.013546801991270608, 0.012033310374263327, 0.036003261747615214, 0.0035259409031634602, -0.016689095908098563, -0.15148356219956757, -0.17338354094781055, -0.2823939997481296, -0.22628503464400535, -0.1763438680441168, -0.23455732916532704, -0.2564146124957737, 0.031324507803419284, 0.022464236160778084, 0.09945479004360437, 0.1590220728172751, -0.0068636705399124, 0.23721055542188044, 0.20862555445659817, 0.15774568879323625, 0.07084313579839542, 0.06503711765406696, -0.2136014427229706, -0.27028372323318645, -0.25920914231011516, -0.12246771092552526, 0.028273478591104406, 0.04518069339655068, 0.06758289865956467, 0.012069166933660927, -0.02500789711196581, -0.08181987109510346, -0.04619444448105885, -0.08875563406397313, 0.010933003905031262, -0.20328086318752478, -0.33858997824030296, -0.431911707943543, -0.22921775477428435, -0.10074070129188936, -0.07088126651739053, 0.18095169398377683, 0.06514861086626443, 0.169775995015368, 0.19706092453701796, 0.10550307997037188, 0.00584646927584194, -0.16010287939494272, -0.07224181364103746, -0.21402776155180314, -0.22324710651892818, -0.2761546817949238, -0.22748823388165612, -0.07786830624401793, 0.010368867950185658, 0.07258033938679505, 0.03489364255087928, 0.027675559651885732, -0.016596684409326195, 0.03592038827239726, -0.07694514870307043, 0.06517050468656028, -0.07206755267976009, -0.18441831519911728, -0.45370763961205113, -0.41319360418802703, -0.37221978183388366, -0.16240298654234422, 0.14551702277853132, 0.20171673315563649, -0.0595143177014596, 0.13837319076798243, 0.10614928943018728, 0.1301580515544775, -0.0068074848541991185, -0.11350691151814352, -0.2295343104675235, -0.3328852942055007, -0.11938676771437691, -0.14358799076639903, -0.04746347603747059, -0.04633455770893469, -0.05057001451171328, -0.029399684600900058, 0.03948213362431121, -0.0029391951563609224, 0.002426234031060155, 0.007754735428367176, -0.03554739080668395, -0.19469321437430578, -0.1446484831233001, -0.24783769983317658, -0.3702124420749352, -0.2118087333634111, -0.05048438824408773, -0.07402857246805755, 0.03552933732190899, -0.0674116336143631, -0.11637512575186712, -0.1808366064637735, -0.08335769125423743, -0.12523347806170043, -0.13577553253648106, -0.12573812454835123, -0.12855565258587331, -0.1829579811567729, -0.04257131840740634, -0.0641298448098376, -0.013527330553357038, -0.03361419957659496, -0.018732213940922934, 0.007952787981852491, 0.03086807723455978, 0.0543477108347833, -0.08006973095525946, -0.0002690179060724305, 0.011473692269376747, -0.18285413533697722, -0.21028503314858152, -0.2610782376975526, -0.13712928045019285, -0.06697942524657936, 0.023898243741778423, 0.022098921431210363, 0.010428045206252198, -0.23918739388560853, -0.2023147794918912, -0.28629996913496836, -0.15809344092070174, -0.13461594978732055, -0.05838205107298808, 0.015913302428560202, 0.001364016991786883, -0.13783909243219397, -0.11832386367205779, -0.04555985555717867, 0.026566157820331338, -0.10189434922151468, 0.0030015336139150362, -0.03554138458925822, 0.0449986041316972, 0.034044665648042885, -0.02206343099233964, -0.035114565181032904, -0.07016039340175888, -0.05336064276754933, -0.1040422685610815, -0.0019561771607625963, 0.0010404717373459515, 0.02074270023297126, 0.023607687201177476, 0.18307127703460407, -0.021955528964989326, 0.01105459200897539, -0.1252750900574912, -0.23407265277547395, -0.17782866104189957, -0.17800763971282735, -0.0663417056576538, 0.026023602952617096, -0.055086120362175015, -0.05151781733802739, -0.09120754427971725, -0.082575682409143, -0.017130043220084556, -0.01134540172951955, -0.026440083669168866, -0.026830725201334327, -0.052451036891178256, -0.06988225544300444, 0.032154727365256, -0.05578359529403759, 0.047536348953330844, 0.04162221862763945, 0.0028386641332574904, 0.013751730316181997, 0.062136341285970204, 0.06262385548762968, -0.0021169909377892096, 0.11990077430263045, 0.012456297621257571, 0.049870211061298915, -0.17732035396062398, -0.27087145920653616, -0.15649213244214477, 0.0024308236265143833, 0.013883171948166259, 0.03985243508336711, -0.05553675226185639, 0.013337003306792192, -0.026004373070294455, -0.045518238990217494, -0.01127367965447626, -0.04475909417499617, 0.016230812435663877, -0.01220354806076659, 0.035351799436114315, -0.023443549181389366, 0.019084038956399298, -0.012015024784921429, 0.04767994145621192, 0.09560758037791328, 0.021043545200297154, -0.08757517622744389, -0.03506377260441129, -0.10695262030628136, -0.07659329887507349, 0.013083083806390419, 0.14627650493006164, 0.10245536931207941, 0.029245950897781432, 0.05577354588367662, 0.04601971765242222, -0.045024229725911885, -0.08403250272704252, -0.09282107123482594, -0.15238385189340564, -0.03203336076546684, -0.069738981588558, 0.05658409604989346, -0.016866519851615587, 0.004617893443920417, 0.054692074666304415, 0.043571010859780206, -0.061370277954195876, 0.03818066764581328, -0.04416619364941805, 0.053124580076504, 0.01387902825577753, 0.04819313782106796, -0.035995689893386425, -0.07499054857777024, -0.02940374006691276, 0.007377583124654245, 0.001096147000683777, -0.02852463547860604, -0.08715359157954977, -0.05150323857296556, 0.024967821522563632, -0.018140080359551284, 0.08254129659364898, 0.0037088144342857805, -0.014170913794643004, -0.05040764731004773, -0.03166438290168019, -0.004604768944279434, 0.06185957780522726, -0.01108322831005714, 0.03578210473481938, 0.04410578237735559, -0.011736479789318034, -0.08063853145702507, -0.06836031414122581, 0.007445254202988025, -0.011826927707845785, -0.0054966167072472245, -0.014404360060728136, 0.05701960408728045, 0.006666417126187437, 0.004447191906785534, 0.02073759071091854, 0.027143010926138213, -0.008773700782684316, 0.029017614086562914, -0.01004816376692016, 0.021687270491516922, -0.01870466794363682, -0.08774364123707842, 0.0012703770078851863, 0.04675396345019282, -0.03026824962298207, 0.013581933124753835, -0.03495955795109719, 0.004183557571204374, 0.01391994584806901, -0.013710379167574057, -0.021209204978220396, 0.05450330358217346, -0.02877981307316328, -0.006190485655899663, -0.02512801652362642], [-0.02450795927958448, -0.011789664306452686, 0.035787808300230026, 0.02198493167560287, -0.017798304438959047, 0.03801388286827932, 0.040010951766215684, 0.04350106854031817, 0.06060471613363129, -0.01837472036386355, 0.02348912374157131, 0.009762936417995626, 0.01351385058339978, -0.012871105155071613, -0.015374260599658964, -0.020912461033689277, 0.08772080893311625, -0.04991305926328637, 0.028185481587252644, 0.003410746670570189, -0.0032568873607199634, -0.057059019754608274, -0.029234759598362862, -0.009876407312616676, -0.020148924158769586, -0.05069644159778579, -0.016139338562635445, 0.02047229650365031, 0.056483655105315334, -0.010662245910477012, -0.030587108776160804, 0.00869559042789453, 0.017807540263586236, -0.04786068289272504, 0.04640156946191, -0.05692411321594759, 0.029469883850904526, -0.02423603552016237, -0.037239865077678604, -0.01568823493813566, -0.014489695970571693, -0.03805180281910584, 0.025815806518659407, -0.011864575858464513, -0.025182847338436447, -0.012161153246499315, -0.005136107706165459, 0.04077680083751142, -0.02330231526492726, 0.07817268466969159, 0.004792523143142093, 0.02975888213201859, 0.08193139879586134, 0.01327364426423987, -0.004692975180712239, -0.019480862782781334, 0.03680259921579924, -0.003958466762110565, 0.07378421212296828, 0.005315096761413147, -0.014042252094924521, -0.009955670700150217, -0.0083928536636504, -0.0010111467898451967, 0.06024086950671796, 0.019760595561640677, 0.03543429545951783, -0.031703144942220235, 0.025247466215906424, 0.005523922611515475, 0.047009450395825596, 0.09281781030290819, 0.10120313156146406, 0.08480635880903857, -0.0030916248551123367, 0.10706236950506022, 0.051387843790855876, -0.06846430139111549, -0.012082371844511828, -0.012779712519938107, -0.023762793205361843, -0.014204568687800926, 0.001577573161553523, -0.007712558859814576, -0.025575254943760426, 0.0271066902004632, -0.013845334481537505, 0.02490182604589798, -0.01774991307842861, -0.01057733154335247, -0.04561967494811597, -0.018913094040189614, 0.0033611100620369655, 0.03223274133156274, 0.08947826533293292, 0.061118571074687274, -0.04226447863404628, 0.1225692220298284, -0.05366318484625355, -0.030024939381677305, 0.03135809150415939, 0.1782805602386842, 0.08594601539561925, 0.0638111099781506, 0.0989791206142758, 0.18184229867734103, 0.10108674191944213, 0.06679985870017814, 0.058293168642003464, 0.01348800427673014, 0.013326561726318848, -0.010767564650916167, -0.07917887251007939, -0.0047317191521059, 0.09804192125675495, -0.03888107731022205, -0.011947374764081496, -0.0414071429497285, -0.03889990924340959, 0.012158360551280079, 0.0924071559311253, 0.13100579102928858, 0.14757780988787417, -0.00894510050034368, 0.05945078544295659, -0.012800999080707065, 0.10293026431921251, -0.0605777975682783, -0.06094236218779089, -0.06516551833078349, -0.1319775832267438, -0.02935303025834933, -0.008258333244814028, 0.039916079980974774, -0.0471594097944791, -0.027975594332858105, -0.08473715059458428, -0.07326129648633709, 0.03681435589961019, 0.0015725605797712815, -0.05448316602604667, 0.04785323419667285, 0.0008047604571504812, -0.049369814743802094, 0.08967270276517741, -0.07548202937245477, -0.1337945840943796, -0.15125933042639272, 0.026503545802960115, 0.13441923117124113, 0.24062005785714202, 0.08823757035830966, 0.07119704841201355, -0.014824647463756264, 0.08068417294545344, 0.07548104062953305, -0.3302039340352046, -0.37317678600405496, -0.22153832998915032, -0.34631191183337334, -0.2008719818013707, -0.10279503171575695, -0.14827207416236513, -0.07745752529245, -0.10036093199768725, -0.05121525683784833, 0.05157446466091577, 0.0029400216830553507, -0.026380746462684204, 0.07011397011518519, -0.01551515743442434, 0.014906933200449652, 0.031181003160067788, -0.07604067394204943, -0.12393907504756257, 0.016669668349469993, 0.10157339831807279, 0.039431345218493244, 0.15683067904811604, 0.018038640993412992, -0.10713104603591415, -0.3631835547795617, -0.1708864209018721, -0.021599113078450975, -0.25638472380168287, -0.27373128521775214, -0.09967985904534724, -0.42027281906687997, -0.3016478236015103, -0.24124512698368428, -0.25044394896588734, -0.16805519793806062, -0.12677562709371842, -0.0656641667177312, 0.031081773975875603, -0.02045124368688016, 0.01989407561712431, -0.019859951528890356, -0.024608645208390324, 0.012735637532190945, 0.03469550008267181, -0.01832547672252499, 0.042063803255704954, 0.07157041076301827, 0.19944045488121778, -0.06172835263572757, 0.1331013317335762, 0.15821571474440982, -0.09753350637892096, 0.06844904703652568, -0.0755252054672793, -0.1821668336536533, -0.49818013205939476, 0.0042444140130787865, -0.1496309657042907, -0.1944586328318274, -0.2843338754048186, -0.2929945578752194, -0.35697718553487123, -0.4047187962482924, -0.2986967303628774, -0.10941965118019144, -0.03284775672464795, 0.03075235604477045, -0.007351548752933305, 0.006648886701128273, 0.02942243652083438, -2.4601015613939443e-05, 0.055862498619910606, 0.06108233074867993, 0.041451860521031655, -0.019631173031570803, -0.054771011252624555, -0.13737669854579304, 0.3266607530112775, 0.19709643207906086, -0.034337670156799206, -0.029943717225786644, 0.16746747962817918, -0.036243236569617476, -0.17057223894935195, -0.29376209928859753, -0.2533641932315419, -0.1887801678784844, -0.40289355345960154, -0.5066734680931895, -0.4307498243322521, -0.4916458407831436, -0.37946805304427617, -0.11380514332402598, -0.03290983969637492, 0.009713478573947455, 0.04023659317669594, 0.09545022913903327, -0.05014198568147541, 0.05060583379278413, 0.053006810843033436, 0.08986392268766014, -0.10682701353555887, -0.12151332176913168, -0.1736901599487048, -0.2792644489410294, -0.1917711998864681, -0.2562966246120766, -0.3451452117241926, -0.1898236972903135, 0.07927820707037267, 0.13820189438257716, -0.049995677890303826, -0.09425408147845048, -0.2737373008625273, -0.2694604314937376, -0.5018573137474965, -0.4040452786012034, -0.4883280062445447, -0.44330629764987545, -0.27217135653415037, -0.16427853318795355, -0.05613968806744364, 0.01085799495756824, -0.0019866295514128413, 0.01935252910556455, -0.021027838009472808, -0.050736482723884535, -0.02486237352486756, -0.24048836629935105, -0.4038366005177077, -0.41523537599183585, -0.4201723779346957, -0.5553610114709082, -0.48081241618363807, -0.47881842667295754, -0.5086993777666413, -0.0973299210858892, -0.01918408749171026, 0.07173498322329298, -0.08255807011814285, -0.00900238968986059, -0.08774086980359967, -0.2384116222697239, -0.3952541265290786, -0.30032412792439167, -0.35810646704505694, -0.40256312448056725, -0.29219161821716877, -0.204964310142899, -0.021068081287153474, 0.013720527323367591, 0.022011422463451235, 0.002612409280451181, 0.08569536815121981, -0.020596128891774944, -0.10870422410992833, -0.3761079975240093, -0.4293172257885316, -0.43330932649923526, -0.36786471117260616, -0.5271762613194242, -0.5595014472441769, -0.43964321410819307, -0.19435415995108765, -0.4090712043672363, -0.14078441650628926, -0.14648031224682398, 0.05521229535920185, 0.07312726590530978, -0.04419642750636661, -0.03618461186703905, -0.17155880641561375, -0.09714728165069614, -0.05349247541897847, -0.09367161619906339, -0.23557232575404916, -0.05446282834914564, -0.06289056373882544, 0.05523122988422489, -0.03965591556432961, 0.023808595544238014, 0.004825585260308297, 0.050457639467424806, -0.07333037732592125, -0.37767425179852365, -0.3668531755255132, -0.28612485044097435, -0.2842935134938829, -0.45264355344809964, -0.440333036410312, -0.2706661387987142, -0.2978105012890322, -0.35509294592262103, -0.2555605925923221, -0.09028775081296134, 0.0639086186031358, 0.00614855421762406, 0.07090902392403055, -0.24508863076927773, -0.3092395617656144, 0.12105817463282953, 0.18094758395899624, -0.011799830892792301, -0.05392131953302573, -0.04654691411193569, -0.0387275099823114, -0.034548322854318705, 0.003228266292423124, 0.00822902941496016, -0.03716403239110561, 0.034468760485566186, -0.0027449770032990355, -0.30925772560524706, -0.27917415255423617, -0.14411806325298393, -0.27806616699217396, -0.4442198913256681, -0.33687003846891517, -0.21423888022307777, -0.1818856047173231, -0.06332060690298931, -0.080962250111589, 0.08348560994174277, -0.05873249726913943, 0.04922370870673186, -0.25233279081185944, -0.08050945072694923, 0.10183634781356962, 0.2681772314803691, 0.2419405066195648, 0.27510787882686344, -0.01287211421523382, 0.017370849974890586, -0.03256493486189059, 0.033759044213860556, -0.052344154697588116, -0.021169834019634445, 0.01443244904892628, -0.09101528606264117, -0.05616652658362512, -0.21784574957346214, -0.08484232543407459, 0.11280121104067113, 0.03438295355331864, -0.12312597802309681, 0.09413850187670703, 0.05070634570905282, 0.0763396274411971, -0.014623819592233894, 0.15744349053904866, 0.0816728765237906, 0.06894843920163024, 0.24473550274358807, -0.22627238339617986, 0.015669671728772212, 0.09524984453123295, 0.2207924243737465, 0.3770217431403462, 0.4449337399806325, 0.20201880593434696, 0.06412088167411431, 0.049568128397992475, 0.11078862958408774, -0.019533503957457638, -0.07713617493016117, 0.025128674228635288, 0.018747994555338744, -0.03720201175741047, -0.016567017217346557, 0.17146936212850375, 0.36904479592289186, 0.35554376704815793, 0.10155590140807984, 0.23492880696723256, 0.11831727405459239, 0.14936046395082386, 0.08268760557583422, 0.38571485233379305, 0.1919722627729095, 0.07997091668911815, 0.17190491251543188, -0.052468841467835196, 0.015922547416315363, 0.003632306721904865, 0.23794350599421582, 0.34348943563498396, 0.3101259234704872, 0.16563068683783794, 0.06241403633787554, 0.040285640934338125, 0.0026207818187551886, 0.021063169049830795, -0.0667056169049199, -0.021540602765779154, -0.11014769551136717, -0.12766906497431763, 0.15347753384371443, 0.2800929839916334, 0.47000479532260714, 0.48689050231708964, 0.199288923452392, 0.0017024501361368191, 0.16572108542682074, 0.2278534131104907, 0.24240906581906013, 0.5475844899578008, 0.43111191252746583, -0.01597301320259717, -0.11249163066055172, -0.05475663195147161, 0.16180461475140606, 0.14701920399949908, 0.20357913159322635, 0.1857808445913309, 0.057005403447784306, 0.057457941475691186, 0.03877231561409625, -0.015387780151765363, -0.09355494195230055, -0.052507290735369645, 0.023318646588249052, -0.0487947986353358, -0.044668887696186, -0.10991837081762207, 0.10953063900718676, 0.033512767526446455, 0.1522945982451125, 0.1993964152761528, 0.04521630460782877, -0.01632603625714252, -0.018637673969509366, 0.19499284503567024, 0.331183507206352, 0.47639903693398133, 0.2376401032653437, 0.13321914235569737, -0.15344765538064747, 0.05953452161217275, 0.29275438240596374, 0.2537795887710073, 0.3186158568230183, 0.13273510424687085, 0.007614086610117925, 0.039946803243214736, 0.09756162516519294, 0.03649327008300193, -0.05331489718277998, 0.03172013949564179, -0.007000732262632506, 0.005757577341920247, -0.0569205415786585, 0.010902640372758916, 0.03638385914837254, -0.21609118084548945, -0.023901014289583793, -0.005755819661568005, -0.1995979171469525, 0.03305583597449845, 0.23021525435129744, 0.4037828700100183, 0.4911151667286298, 0.32693547982624377, 0.19446366301680906, 0.14467404915980564, 0.09324097919663508, 0.025019747414476493, 0.23798308778069077, 0.10505552492501115, 0.060308334428085274, 0.11160002907938091, 0.024690916814819597, -0.09736663500427327, -0.0035327874428839967, 0.03162514100842518, 0.015528745409243885, 0.02882594810335032, 0.020286290685816617, -0.019546124150178774, -0.018356412852480918, 0.11407250059576389, 0.010728516984463823, -0.43398914578767583, -0.5311836881736646, -0.3722896850709294, -0.10249384401977209, -0.07607256659534047, 0.08667574396095075, 0.45474437820409974, 0.2486818293622409, 0.32213620139449217, 0.196641029707367, 0.11479989680232455, 0.1823885231072849, 0.09785971768859025, 0.05228280978425955, -0.16540094756323634, 0.02037363397310937, 0.06939470050752254, 0.05179360916652134, -0.06030824963989159, -0.009919191418852646, -0.008614524778766085, 0.04254461676473504, 0.02574955757397935, 0.019748327188215342, 0.056331450177357974, -0.03491135409106281, 0.06362426646852525, -0.07367475327614337, -0.260922898597294, -0.368111874820105, -0.2504639893600821, 0.028348383920844555, 0.3147708443450248, 0.41141777102884375, 0.42838400807666704, 0.0687310377604571, 0.25225656293845977, 0.28425863194555007, 0.24080765043731212, 0.2727522573127954, 0.07361970120234897, -0.04258099251664808, -0.047631843240658826, 0.015860481529992726, -0.10424579370210096, -0.013813471102898644, 0.02028040201897145, 0.04075741819127395, -0.030103113786082394, -0.07020770815988094, 0.005121656924326988, -0.0452887975331872, -0.0034371859301471253, -0.05158108832556825, -0.12396805450897151, -0.066570826585772, -0.21255906568641536, -0.2821865890739272, 0.03459692899804739, 0.16653905365014524, 0.262294443147947, 0.38390251805071546, 0.348334510531335, 0.1466959893929232, 0.11145984697311952, 0.2577589476167139, 0.05486667020384666, 0.09309085216298002, 0.09355841644110052, -0.16288075992930695, -0.16358602266163239, -0.1678944709726705, -0.04009307385506735, -0.07007043865785334, -0.024499456233859452, -0.01752131944894581, 0.030683770666457423, 0.04068018453371327, 0.03480868750742893, -0.047545971507538184, -0.019013544180847056, 0.011724250059202218, -0.06031596664125297, -0.035763998405023804, -0.2578229344908678, -0.2324700441827638, -0.08267267364926371, 0.08686384386637287, 0.18872904010246613, -0.018603329381504347, -0.09981366381960081, -0.1551401939967985, -0.17757982175459308, -0.00513095793162639, -0.37528959349178403, -0.0980970658985507, -0.15463095940861735, -0.19483963264274742, -0.20616364884492966, -0.19619914706912514, -0.06832859728309, -0.08940486440640302, -0.04638696143730111, -0.01505959401405363, -0.005162207438861472, -0.022328827135777673, -0.03965720400690671, 0.02228788797650248, 0.005553673602790069, 0.06514609722999526, -0.06647234481472553, -0.1034923502626567, -0.042582433910490644, 0.0568886617015837, 0.01538011923853339, 0.07257267443284475, 0.003895440685595849, -0.039452618725617325, -0.13872724221624858, -0.2190635821938068, -0.4663694610456969, -0.26453307667538645, -0.002518778438917205, -0.1802876323449702, -0.35709795368757735, -0.1847036941123322, -0.19932730994437356, -0.2112361959138415, -0.09726444867180437, -0.037901385462980455, -0.052731503075039446, -0.04457525930646899, 0.02701622536681526, -0.05767275470989365, -0.023062396340251864, 0.02046606801033974, -0.011842147446445683, 0.032229427866242485, -0.03787890123490745, 0.001334759433926154, -0.036150273159470905, -0.053621214977742006, -0.07413526193880428, -0.06608754343462789, 0.013326220843813174, -0.029858830451518888, -0.0666983231860343, -0.22382590173756173, -0.3025642852341546, -0.15168572523179089, -0.18086028683133415, -0.03362329576635303, -0.10279379808062802, -0.24753147349728605, -0.26974021717408553, -0.11198625663158304, 0.003728381931331308, -0.03285477959273473, 0.01996478465656116, 0.042902683351028134, 0.062335461250907366, -0.017322004846397513, -0.023791553853613673, 0.07067041595690757, -0.015372160868512582, 0.03247970909592589, -0.03386714624354, 0.006631293612663669, -0.07356469613352122, -0.07275787568765003, -0.07817742956097855, -0.04075141318240658, -0.05568260549900567, -0.04567544289736318, -0.0611469440412721, -0.14580388632262098, -0.11559114058571353, -0.031571630995917095, -0.15057413150840765, -0.17687172801751275, -0.2685644124743981, -0.3506486929396342, -0.1729257074390345, -0.07675840399354204, -0.11922430043196337, 0.004712543342661205, -0.012392497296009726, -0.03082896949943432, 0.038883534533053946, -0.05899014219081612, -0.025838411143239298, -0.009565195128206512, -0.015593610309957678, 0.023788443058212243, -0.015891337838458485, 0.0637324936536552, -0.022380328110979803, -0.09552929257551657, 0.08336680993690405, 0.05126972413271562, -0.016023441682506193, 0.006139484762648342, -0.09807930706967688, -0.010423365464704385, 0.07529891993279653, -0.006954777974453915, -0.049639535096177, -0.02282380823963648, -0.015443651010678492, 0.009294583311970058, 0.015528545383726498, -0.015401262913233228, 0.021876670346404458, -0.0338237629959261, -0.05746956237276723, -0.036548533868912325, 0.021018697217173782, 0.01068487018906437, 0.031925369886482265, 0.039080831965596176, 0.05233593003949948, 0.03337162846920674, -0.04970395546851991, 0.04422848428920934, -0.050916952062227946, 0.018523726355588115, 0.03282168024205285, -0.04073365981264026, 0.0025725712139601205, 0.007180254641824786, -0.007356205832017645, -0.03565640061932108, 0.022402088923247007, 0.001646531284029227, 0.01742642125366435, -0.006269434648147685, -0.008640522672109916, 0.04962815803435766, -0.011758827700978504, 0.007501792061643021, -0.0435851115551861, -0.008883071969750392, -0.06541831825243956, 0.017767273820148515, -0.01032219746153624, -0.003096783661918447], [0.04217011648011614, 0.012780447445199402, -0.03755540872710152, -0.008230821929820477, 0.017242401063488337, -0.05597811582001473, 0.029598209063898904, -0.001283822791171287, -0.08246578074780517, 0.010794385542577084, 0.03202084303451312, 0.040704250076394825, -0.03007543051364816, 0.02682445531768532, -5.8943792804973676e-05, 0.0972551824750677, 0.00533028544473283, -0.008802864090212923, -0.0022195087799918686, -0.03167512101654251, -0.04161620566862373, -0.012790699123134587, 0.003721607362591602, 0.04017202782031159, 0.11118334663213046, -0.020856346124500602, 0.029044259041371395, 0.019184017741884045, 0.034870893677667096, 0.027645033348284394, 0.04740012832835304, -0.017110855115919, 0.02979417213690803, 0.011446411786663844, 0.03785034384145622, -0.00725364720455166, -0.034296699047606335, 0.0006112416158666728, -0.04117828232634515, -0.040096031700552405, -0.04563900918536787, 0.015845383999735944, -0.015372774323590542, 0.03476377942353782, 0.03422253348669329, -0.10317010641983185, -0.01979631236910756, -0.02121022143880255, 0.008056998169386093, -0.004611382328529958, -0.09465345590821285, -0.022732278560227945, -0.039988276049233974, 0.053736811019911714, 0.05681890436738431, -0.07511975760155018, 0.041642771817621584, -0.02175744236584669, 0.04791970188804195, -0.012367689689988897, -0.036297167972152704, -0.029494834422063545, -0.014418315365811884, -0.04098630894816183, -0.043764171340339005, 0.002062839954262173, -0.0392596555042031, -0.032406030123407384, 0.01906193294159242, -0.005225137059188619, -0.03693347207375284, -0.025726513166075982, -0.026845577966342273, -0.03889003217096749, 0.01864722767860068, -0.0053288756990744505, -0.005779238027676516, -0.003462221242586908, -0.028903175876911692, -0.07395474204255399, -0.027396698185491987, 0.046307904827546986, 0.022763879450905387, -0.01333072612052151, -0.02166887963646941, 0.03466320053821064, 0.027018714506806672, -0.020697817985462472, -0.06867765907993462, -0.008032741595628392, -0.024372778325891006, 0.05163649167297705, -0.006363706523660066, -0.06395627182230545, -0.04940943622201521, -0.016587083248679538, -0.12129017229857227, -0.0777783201020976, -0.1671254890596958, -0.14767863992586802, 0.04819378090749854, 0.08391099636548201, -0.01113924047597712, 0.004956127390275351, -0.03502225264671219, -0.013422077327816716, 0.007510416876692575, -0.0008753294020005894, -0.019767959019362222, -0.10218177889075243, -0.011161458682190142, 0.013526959819437615, 0.04078750346887626, -0.03436206990167129, 0.008116113251592625, 0.011535145660414541, -0.004186993224740291, 0.03431989864723283, -0.06493128855771803, -0.05706129455058174, -0.12463106307576931, -0.22129916982804135, -0.21607165636348544, -0.15425106113547574, -0.09237316240589295, 0.0888042180873679, 0.045232128203789676, -0.18747066176368432, 0.0756416434082472, 0.029559965120596103, -0.24595782071014488, -0.14396964254638542, -0.05783967697351721, -0.17833743433063598, -0.10647784974082859, -0.024590449802082234, -0.0937732186284334, -0.027418682893158918, -0.028593918356913196, 0.05937406158183055, -0.005381371356127803, 0.052245992984034394, 0.02823777380441888, 0.04166565762926439, -0.05345367642016822, 0.041678554281071443, -0.10910195375923676, -0.14551499219597677, -0.1722573188417332, -0.14799800986844167, -0.17547334598175818, 0.08792474260363123, 0.06584921968984667, -0.05639543023556313, 0.01598772970026968, 0.2546929588335066, -0.04347896472233193, -0.07749837944666643, -0.2534533709269133, -0.12197734553471609, -0.04421668806451874, 0.011607026149888178, -0.09917532679951883, -0.12269920389827542, -0.024455482902745913, 0.03324405062144513, 0.05840533691730662, 0.039680228788687835, -0.025388072069758287, 0.01612517099126525, -0.07118431532270106, -0.05174174239889214, -0.10101267368649462, -0.19812293206404524, -0.16733324162749702, -0.23750273973338018, -0.21218155737690272, -0.26438216874776554, -0.08386722324179294, -0.0675470253292921, 0.02332123874605476, -0.13115477263995945, -0.15560308846512197, -0.1621033938794435, -0.20771371283964768, -0.10315385024534982, -0.011055738199945415, -0.157815115506443, -0.3185537925718326, -0.09105500790003833, 0.14596582717103745, -0.03347540170871522, -0.09918592109500628, -0.04148095389917856, -0.02482091321880333, 0.06467748714559311, 7.782367055506462e-05, 0.00888249243033703, -0.020978205780431698, -0.13230474457634023, -0.07982671137087179, -0.10598807090142322, -0.18343052865778592, -0.19331773707634187, -0.2633178034508794, -0.4492846585263292, -0.3765185054150583, -0.49547862195757414, -0.4609669863654048, -0.29913896107700305, -0.265389483138782, -0.2907131199826165, -0.16496566602448096, -0.265669861203041, 0.07294301971923974, -0.09831053860839166, -0.31326425398468266, -0.1595629693192824, 0.3182311448326444, 0.09539890647943607, -0.025544527096359685, -0.15873442588842634, 0.013350256195942704, 0.00015691410424996158, 0.011194325835156236, -0.04417852155586454, 0.026690650275855668, -0.07630200656713203, -0.028095318116630928, -0.03380190750137274, -0.19571201446610795, -0.1231590980158451, -0.28263226664396096, -0.26094343718581164, -0.2169595873775553, -0.2590402540783868, -0.2030813800275646, -0.10371265828695686, -0.3085932684132018, -0.17283931681084638, 0.08062911442887515, 0.04793238838535528, 0.1288507601744406, 0.18797567100997534, 0.038849901582803416, 0.10894302598944279, 0.21230499467966052, 0.20949163867665524, -0.04137100656723625, -0.06405956384918057, -0.05498131256210396, -0.015439902577272915, -0.009402164465279816, -0.08133056551734585, 0.012624803181382805, -0.08834080105230457, -0.1518290916855795, 0.02322814596454493, -0.0027515381922762834, -0.10282593798463417, -0.1256134288714244, 0.07582247788274359, -0.021782988746956135, -0.27915818967074585, -0.11257323701621406, -0.07198722313419523, -0.02315303652484635, 0.02607210578540191, 0.2730878148885508, 0.17365530672672452, 0.43527134190874134, 0.3391555077612501, 0.18332436758800277, 0.24130451695035646, 0.18343899861630167, 0.19171420140931836, -0.03911889617485075, -0.08361580581029597, 0.03280904600098157, 0.0034742089800865275, -0.09056184459956712, -0.04820606732627498, -0.03721213939679538, -0.08337254162440591, -0.022845543987558715, -0.035378911721319205, -0.10128960974583381, -0.07199256179261468, 0.05882811576202987, 0.11182244628619374, 0.20677965095695106, -0.1673732917544375, 0.020675644895642956, 0.2560075329518903, 0.17518738825565186, 0.49470964733301187, 0.18735376144015306, 0.25273964161958995, 0.275472713975092, 0.3112885908380375, 0.15890319118677332, 0.12164325613465034, 0.16151302660114072, 0.1388533497648725, 0.0334145855526504, -0.04466389929396163, 0.02596219689407718, -0.06873162228453553, -0.048685467159587645, -0.011450552913826198, -0.0005393170697028692, -0.06452673285080299, 0.021593609095445408, 0.08221966684978665, 0.0024308375011129254, -0.014016315225177912, 0.03958098290472911, 0.16132181523841696, 0.20142050513063964, 0.18016339392756436, 0.28824967344323765, -0.02954544537489274, 0.4850708968279093, 0.32556023167544784, -0.07455198370796803, -0.11378291138011472, -0.1458116952127109, 0.12613403108561033, 0.14122867149879129, 0.23625886215934844, 0.17518849508523818, 0.2568439766063452, 0.15403848925022193, 0.026147916018347376, -0.03663026967970877, 0.009340957803646313, 0.010707122533943488, -0.0036908589175716215, -0.07619071466741695, -0.05038110067688196, -0.07261205476761984, 0.008797642245480066, 0.07764471763884691, -0.06778097948857055, 0.21601896922711394, 0.30624717591237455, 0.07234238601379966, 0.11515606944540333, 0.15862554575264987, 0.45165102695169174, 0.32152187785575936, 0.09103330016322331, -0.08068699031107428, -0.11380949505882249, -0.04379608612391187, 0.15622690264296013, -0.05701098031639688, 0.28395810019578277, 0.2978898387973531, 0.09292497187842051, 0.06821213244819757, 0.04115965206961745, 0.01826853237543395, -0.0474677808749323, 0.042974981306752605, 0.019175478750734533, -0.029025619276265485, 0.032183517478229236, -0.05940828934343494, -0.12653026053242228, 0.08389066532714465, 0.01499528303322757, 0.3995009265404658, 0.2289692998426386, 0.0402219696914295, 0.003368863909690799, 0.10461311941926434, 0.21996420656336096, 0.15564618263330607, 0.38867682232301914, 0.23172527150573083, -0.012549535589774525, 0.04868992738595907, 0.15867750956748114, -0.14456759730897648, -0.029833224783281344, -0.045603519296849714, 0.0637210566798614, -0.005203300948918632, 0.026700412891376455, -0.02186618888762667, -0.03455492695370883, -0.026614542277829268, -0.004996622485368192, -0.0008533462181759251, 0.016344477544960326, 0.039507665052549594, 0.01742951749498236, 0.049914510633699005, 0.13365113011828547, 0.038604119815434844, 0.07343315761152987, -0.08605341116838602, 0.12595438422696958, 0.25491276664422696, 0.1552843417854991, 0.07534085233981862, 0.19539990251689912, 0.5846702040352184, 0.17208188506191519, 0.01591048804111204, 0.08614370129542578, -0.06984358115101133, -0.3462036450077175, -0.27751644132485354, -0.1805727055668777, -0.05332638367417548, -0.037029199967998916, -0.047304000142834327, -0.041454643161763435, 0.0386562515630808, -0.006950104994607294, 0.014078957886859112, -0.036601294064242645, 0.026090626536877454, 0.1615933382336883, 0.22335126806146122, 0.06846607862831205, 0.1465408727354525, 0.06894279974626606, -0.16381526665816323, -0.16567702571486126, -0.17444177042104175, -0.015133706544571824, 0.1895469388678125, 0.24202099777001101, 0.27518281600995903, 0.17494248523036823, -0.02008764470889755, 0.11008047021944811, -0.3058457839895753, -0.3660762745839676, -0.20391784769349713, -0.12159939936930696, -0.006694683719930138, 0.035790095602431064, 0.03201991743024451, 0.05838763708711852, -0.015733089564173495, 0.0051551629659920065, -0.04712994224419786, -0.059983871302390274, 0.026509606717648095, 0.2609950447871888, 0.33145185350221057, 0.5276869414013092, 0.6960164227731206, 0.20681655733047108, -0.21062561806102945, -0.35383161092202015, -0.30829096500078856, -0.10717240334047058, 0.34873247912082, 0.37988122632267607, 0.2530625959376145, 0.24518994735518673, -0.1312272674960002, -0.06795930476528156, -0.1567548494130009, -0.28030790387839993, -0.19070752764175267, -0.01939978291066304, 0.05798738910008151, 0.06296671666332115, 0.05390084668376451, -0.03261916426425275, -0.0032613496113418562, 0.04871976346067606, -0.11057197758475279, -0.08646518529565245, 0.10328181913153729, 0.2787707535542251, 0.4540666617598689, 0.5949452498472478, 0.5855882624575584, 0.5780906357573555, 0.24654922245463837, 0.3081937115098361, 0.3207384248536557, 0.4985606430063529, 0.4682875368198331, 0.4094851929970016, 0.14404159674181635, 0.02046081564215486, -0.3541063763904073, -0.0699532872865698, -0.048384662589365135, -0.1436013687472739, -0.0962911179539947, -0.11165224335080913, 0.055342658790842006, 0.048367904299530674, -0.054664742341110024, 0.0026104092573074862, -0.008668121374037625, -0.041715194524444874, -0.06965534498734963, -0.11846716885578015, 0.06808412263629285, 0.3257446215464476, 0.48189963949242187, 0.5249260078883711, 0.4615456910186869, 0.6257834487525725, 0.5593537903256494, 0.7443245969589566, 0.8424384905936568, 1.0681031841230588, 0.4781856300459092, 0.38653946622856794, 0.022207546104430733, -0.011367674826136471, -0.11561797442348097, -0.07046815887826915, -0.029856361492951438, -0.05775377932923074, -0.04337397649263313, -0.00952014524426938, 0.1286957632474799, 0.09673679337788413, -0.03877478517483099, -0.007378573499816595, -0.038132749575218824, -0.017096410350667966, -0.03466167699307734, 0.0079319154930138, 0.13351732396588414, 0.2853275658660583, 0.4325028423260849, 0.45810917168066384, 0.26635032764463823, 0.3746223473448734, 0.639870698374365, 0.7482949679415817, 0.7304423926799176, 0.6957302914866689, 0.056437234493955844, 0.033246021958832556, -0.10544516652813068, -0.00520828601572867, 0.11816885614483813, 0.12248050089398076, 0.09025644935804412, -0.015200389430750706, -0.1155242468512043, -0.008775959785807714, 0.02657686859938182, 0.10171792117218557, 0.025044080539062635, -0.014622170391549253, -0.014863337518415082, 0.04137402161769348, -0.03679408988790124, 0.06361223279605592, 0.014946732955461088, 0.07183926205165045, 0.2518876167214537, 0.533129686318634, 0.22067433236530298, 0.22635653787460971, 0.3973104253498615, 0.27088924727717795, 0.18515480479477886, 0.12622296079368706, -0.25756694549858555, -0.10136765025589708, -0.4357218317361699, -0.1555276838722292, 0.10259965576228139, 0.1523502800691262, 0.10806683954279693, -0.016622112747988246, -0.18544766769095725, 0.0014259072511051166, 0.04704875185704445, 0.02034771344290479, -0.034426661211515795, 0.006449079780067582, -0.06489135835886967, 0.0743717228920801, 0.04734224538257479, -0.038607004190305036, -0.08432737796431147, -0.21465793544427328, -0.0246350212707331, 0.13616966279484646, 0.038308965311867366, 0.20020414908322165, -0.1838435425786674, -0.17905760185718916, -0.22619546659906725, -0.3381954760620634, -0.5360386024250307, -0.12630726439597606, -0.37095737021482217, -0.0033373748313617045, -0.07734795758785763, 0.006576235478337239, -0.009415770874542257, -0.10245437394401004, -0.007022244289957616, -0.0004317359795235769, 0.0030856004313346333, 0.0016144605182885218, -0.05352923890221918, 0.034376516438231704, 0.08359219768723228, -0.020476606257056995, 0.00479158672403941, -0.02278368914664461, -0.08496379080706387, -0.12178992290004438, -0.25637213241501955, -0.08086406315799104, 0.08163347508063314, -0.0831623880943298, -0.27776055919241593, -0.31306987336670633, -0.2431267468780021, -0.39981628785127404, -0.2948808197315116, -0.16875367729004695, -0.15160882567673523, 0.03355779591504014, -0.08079226001141934, -0.1882160064194509, 0.20521077762256387, 0.14884963895356818, 0.010766809318644028, -0.043624082083873646, -0.01881534090304438, -0.13635105021944371, -0.0024178933107324024, 0.004846740832915415, 0.027243154488455813, -0.02042706467229175, 0.01266450433161383, -0.11701997422495507, -0.1821390579690736, -0.23753787914848493, -0.2918524233258359, -0.25011570082547796, -0.21835659318265266, -0.4893357848542995, -0.6055134648908309, -0.5409681970239533, -0.24107106934340713, 